<?xml version="1.0"?>
<MethodSetup Method="BDT::BDT">
  <GeneralInfo>
    <Info name="TMVA Release" value="4.2.0 [262656]"/>
    <Info name="ROOT Release" value="6.02/13 [393741]"/>
    <Info name="Creator" value="wangj"/>
    <Info name="Date" value="Thu Aug 25 22:17:41 2016"/>
    <Info name="Host" value="Linux vocms029.cern.ch 2.6.32-504.12.2.el6.x86_64 #1 SMP Thu Mar 12 07:33:00 CET 2015 x86_64 x86_64 x86_64 GNU/Linux"/>
    <Info name="Dir" value="/afs/cern.ch/user/w/wangj/tmvaBntupleRunII/CMSSW_7_5_8/src/tmvaBntupleRunII/myTMVA"/>
    <Info name="Training events" value="584"/>
    <Info name="TrainingTime" value="4.36957121e-01"/>
    <Info name="AnalysisType" value="Classification"/>
  </GeneralInfo>
  <Options>
    <Option name="V" modified="Yes">False</Option>
    <Option name="VerbosityLevel" modified="No">Default</Option>
    <Option name="VarTransform" modified="No">None</Option>
    <Option name="H" modified="Yes">False</Option>
    <Option name="CreateMVAPdfs" modified="No">False</Option>
    <Option name="IgnoreNegWeightsInTraining" modified="No">False</Option>
    <Option name="NTrees" modified="Yes">850</Option>
    <Option name="MaxDepth" modified="Yes">3</Option>
    <Option name="MinNodeSize" modified="Yes">2.5%</Option>
    <Option name="nCuts" modified="Yes">20</Option>
    <Option name="BoostType" modified="Yes">AdaBoost</Option>
    <Option name="AdaBoostR2Loss" modified="No">quadratic</Option>
    <Option name="UseBaggedBoost" modified="Yes">True</Option>
    <Option name="Shrinkage" modified="No">1.000000e+00</Option>
    <Option name="AdaBoostBeta" modified="Yes">5.000000e-01</Option>
    <Option name="UseRandomisedTrees" modified="No">False</Option>
    <Option name="UseNvars" modified="No">3</Option>
    <Option name="UsePoissonNvars" modified="No">True</Option>
    <Option name="BaggedSampleFraction" modified="Yes">5.000000e-01</Option>
    <Option name="UseYesNoLeaf" modified="No">True</Option>
    <Option name="NegWeightTreatment" modified="No">inverseboostnegweights</Option>
    <Option name="Css" modified="No">1.000000e+00</Option>
    <Option name="Cts_sb" modified="No">1.000000e+00</Option>
    <Option name="Ctb_ss" modified="No">1.000000e+00</Option>
    <Option name="Cbb" modified="No">1.000000e+00</Option>
    <Option name="NodePurityLimit" modified="No">5.000000e-01</Option>
    <Option name="SeparationType" modified="Yes">giniindex</Option>
    <Option name="DoBoostMonitor" modified="No">False</Option>
    <Option name="UseFisherCuts" modified="No">False</Option>
    <Option name="MinLinCorrForFisher" modified="No">8.000000e-01</Option>
    <Option name="UseExclusiveVars" modified="No">False</Option>
    <Option name="DoPreselection" modified="No">False</Option>
    <Option name="SigToBkgFraction" modified="No">1.000000e+00</Option>
    <Option name="PruneMethod" modified="No">nopruning</Option>
    <Option name="PruneStrength" modified="No">0.000000e+00</Option>
    <Option name="PruningValFraction" modified="No">5.000000e-01</Option>
    <Option name="nEventsMin" modified="No">0</Option>
    <Option name="UseBaggedGrad" modified="No">False</Option>
    <Option name="GradBaggingFraction" modified="No">5.000000e-01</Option>
    <Option name="UseNTrainEvents" modified="No">0</Option>
    <Option name="NNodesMax" modified="No">0</Option>
  </Options>
  <Variables NVar="6">
    <Variable VarIndex="0" Expression="Btrk1Pt" Label="Btrk1Pt" Title="Btrk1Pt" Unit="" Internal="Btrk1Pt" Type="F" Min="8.03437412e-01" Max="1.87681065e+01"/>
    <Variable VarIndex="1" Expression="Bchi2cl" Label="Bchi2cl" Title="Bchi2cl" Unit="" Internal="Bchi2cl" Type="F" Min="1.02160443e-02" Max="9.95908499e-01"/>
    <Variable VarIndex="2" Expression="BsvpvDistance/BsvpvDisErr" Label="BsvpvDistance/BsvpvDisErr" Title="BsvpvDistance/BsvpvDisErr" Unit="" Internal="BsvpvDistance_D_BsvpvDisErr" Type="F" Min="3.50040293e+00" Max="1.80476059e+02"/>
    <Variable VarIndex="3" Expression="cos(Bdtheta)" Label="cos(Bdtheta)" Title="cos(Bdtheta)" Unit="" Internal="cos_Bdtheta_" Type="F" Min="-9.22659278e-01" Max="1.00000000e+00"/>
    <Variable VarIndex="4" Expression="abs(Btrk1Eta)" Label="abs(Btrk1Eta)" Title="abs(Btrk1Eta)" Unit="" Internal="abs_Btrk1Eta_" Type="F" Min="2.76235165e-03" Max="2.38762999e+00"/>
    <Variable VarIndex="5" Expression="Bmumupt" Label="Bmumupt" Title="Bmumupt" Unit="" Internal="Bmumupt" Type="F" Min="7.44963360e+00" Max="2.90240459e+01"/>
  </Variables>
  <Spectators NSpec="0"/>
  <Classes NClass="2">
    <Class Name="Signal" Index="0"/>
    <Class Name="Background" Index="1"/>
  </Classes>
  <Transformations NTransformations="0"/>
  <MVAPdfs/>
  <Weights NTrees="850" AnalysisType="0">
    <BinaryTree type="DecisionTree" boostWeight="1.3840519431720195e+00" itree="0">
      <Node pos="s" depth="0" NCoef="0" IVar="0" Cut="2.4531600475311279e+00" cType="0" res="-9.9000000000000000e+01" rms="0.0000000000000000e+00" purity="4.4033095240592957e-01" nType="0">
        <Node pos="l" depth="1" NCoef="0" IVar="1" Cut="5.7394642382860184e-02" cType="0" res="-9.9000000000000000e+01" rms="0.0000000000000000e+00" purity="9.2226010560989380e-01" nType="0">
          <Node pos="l" depth="2" NCoef="0" IVar="-1" Cut="3.2372190952301025e+00" cType="0" res="-9.9000000000000000e+01" rms="0.0000000000000000e+00" purity="9.7810983657836914e-01" nType="1"/>
          <Node pos="r" depth="2" NCoef="0" IVar="-1" Cut="0.0000000000000000e+00" cType="1" res="-9.9000000000000000e+01" rms="0.0000000000000000e+00" purity="4.8016074299812317e-01" nType="-1"/>
        </Node>
        <Node pos="r" depth="1" NCoef="0" IVar="1" Cut="5.2452629804611206e-01" cType="0" res="-9.9000000000000000e+01" rms="0.0000000000000000e+00" purity="1.0350801795721054e-01" nType="0">
          <Node pos="l" depth="2" NCoef="0" IVar="2" Cut="5.4739303588867188e+00" cType="0" res="-9.9000000000000000e+01" rms="0.0000000000000000e+00" purity="5.6501179933547974e-01" nType="0">
            <Node pos="l" depth="3" NCoef="0" IVar="-1" Cut="0.0000000000000000e+00" cType="1" res="-9.9000000000000000e+01" rms="0.0000000000000000e+00" purity="9.0005797147750854e-01" nType="1"/>
            <Node pos="r" depth="3" NCoef="0" IVar="-1" Cut="0.0000000000000000e+00" cType="1" res="-9.9000000000000000e+01" rms="0.0000000000000000e+00" purity="1.6522641479969025e-01" nType="-1"/>
          </Node>
          <Node pos="r" depth="2" NCoef="0" IVar="-1" Cut="8.7230205535888672e+00" cType="0" res="-9.9000000000000000e+01" rms="0.0000000000000000e+00" purity="3.7635255604982376e-02" nType="-1"/>
        </Node>
      </Node>
    </BinaryTree>
    <BinaryTree type="DecisionTree" boostWeight="1.4590556494000675e+00" itree="1">
      <Node pos="s" depth="0" NCoef="0" IVar="0" Cut="1.6318025588989258e+00" cType="0" res="-9.9000000000000000e+01" rms="0.0000000000000000e+00" purity="5.6420177221298218e-01" nType="0">
        <Node pos="l" depth="1" NCoef="0" IVar="0" Cut="2.4298143386840820e+00" cType="0" res="-9.9000000000000000e+01" rms="0.0000000000000000e+00" purity="9.1593104600906372e-01" nType="0">
          <Node pos="l" depth="2" NCoef="0" IVar="-1" Cut="7.8686773777008057e-01" cType="1" res="-9.9000000000000000e+01" rms="0.0000000000000000e+00" purity="9.5748329162597656e-01" nType="1"/>
          <Node pos="r" depth="2" NCoef="0" IVar="2" Cut="9.9156904220581055e+00" cType="0" res="-9.9000000000000000e+01" rms="0.0000000000000000e+00" purity="6.2220239639282227e-01" nType="0">
            <Node pos="l" depth="3" NCoef="0" IVar="-1" Cut="0.0000000000000000e+00" cType="1" res="-9.9000000000000000e+01" rms="0.0000000000000000e+00" purity="1.0000000000000000e+00" nType="1"/>
            <Node pos="r" depth="3" NCoef="0" IVar="-1" Cut="0.0000000000000000e+00" cType="1" res="-9.9000000000000000e+01" rms="0.0000000000000000e+00" purity="3.1746187806129456e-01" nType="-1"/>
          </Node>
        </Node>
        <Node pos="r" depth="1" NCoef="0" IVar="2" Cut="9.0930204391479492e+00" cType="0" res="-9.9000000000000000e+01" rms="0.0000000000000000e+00" purity="1.4041490852832794e-01" nType="0">
          <Node pos="l" depth="2" NCoef="0" IVar="-1" Cut="0.0000000000000000e+00" cType="1" res="-9.9000000000000000e+01" rms="0.0000000000000000e+00" purity="1.0000000000000000e+00" nType="1"/>
          <Node pos="r" depth="2" NCoef="0" IVar="-1" Cut="3.8433548808097839e-01" cType="0" res="-9.9000000000000000e+01" rms="0.0000000000000000e+00" purity="4.6496026217937469e-02" nType="-1"/>
        </Node>
      </Node>
    </BinaryTree>
    <BinaryTree type="DecisionTree" boostWeight="1.1530316322301732e+00" itree="2">
      <Node pos="s" depth="0" NCoef="0" IVar="2" Cut="1.0035670280456543e+01" cType="0" res="-9.9000000000000000e+01" rms="0.0000000000000000e+00" purity="5.0622546672821045e-01" nType="0">
        <Node pos="l" depth="1" NCoef="0" IVar="4" Cut="8.8433486223220825e-01" cType="1" res="-9.9000000000000000e+01" rms="0.0000000000000000e+00" purity="8.2782346010208130e-01" nType="0">
          <Node pos="l" depth="2" NCoef="0" IVar="-1" Cut="0.0000000000000000e+00" cType="1" res="-9.9000000000000000e+01" rms="0.0000000000000000e+00" purity="1.0000000000000000e+00" nType="1"/>
          <Node pos="r" depth="2" NCoef="0" IVar="4" Cut="9.7347259521484375e-01" cType="0" res="-9.9000000000000000e+01" rms="0.0000000000000000e+00" purity="6.9158828258514404e-01" nType="0">
            <Node pos="l" depth="3" NCoef="0" IVar="-1" Cut="0.0000000000000000e+00" cType="1" res="-9.9000000000000000e+01" rms="0.0000000000000000e+00" purity="8.5579645633697510e-01" nType="1"/>
            <Node pos="r" depth="3" NCoef="0" IVar="-1" Cut="0.0000000000000000e+00" cType="1" res="-9.9000000000000000e+01" rms="0.0000000000000000e+00" purity="3.6848399043083191e-01" nType="-1"/>
          </Node>
        </Node>
        <Node pos="r" depth="1" NCoef="0" IVar="0" Cut="1.4819144010543823e+00" cType="0" res="-9.9000000000000000e+01" rms="0.0000000000000000e+00" purity="2.3029902577400208e-01" nType="0">
          <Node pos="l" depth="2" NCoef="0" IVar="5" Cut="2.2139747619628906e+01" cType="1" res="-9.9000000000000000e+01" rms="0.0000000000000000e+00" purity="6.8552190065383911e-01" nType="0">
            <Node pos="l" depth="3" NCoef="0" IVar="-1" Cut="0.0000000000000000e+00" cType="1" res="-9.9000000000000000e+01" rms="0.0000000000000000e+00" purity="8.6284077167510986e-01" nType="1"/>
            <Node pos="r" depth="3" NCoef="0" IVar="-1" Cut="0.0000000000000000e+00" cType="1" res="-9.9000000000000000e+01" rms="0.0000000000000000e+00" purity="1.0922320187091827e-01" nType="-1"/>
          </Node>
          <Node pos="r" depth="2" NCoef="0" IVar="-1" Cut="3.8593062758445740e-01" cType="0" res="-9.9000000000000000e+01" rms="0.0000000000000000e+00" purity="3.4004699438810349e-02" nType="-1"/>
        </Node>
      </Node>
    </BinaryTree>
    <BinaryTree type="DecisionTree" boostWeight="9.6035874814641087e-01" itree="3">
      <Node pos="s" depth="0" NCoef="0" IVar="0" Cut="2.4535596370697021e+00" cType="0" res="-9.9000000000000000e+01" rms="0.0000000000000000e+00" purity="5.3673005104064941e-01" nType="0">
        <Node pos="l" depth="1" NCoef="0" IVar="4" Cut="9.3695139884948730e-01" cType="1" res="-9.9000000000000000e+01" rms="0.0000000000000000e+00" purity="8.6805552244186401e-01" nType="0">
          <Node pos="l" depth="2" NCoef="0" IVar="-1" Cut="3.0143017768859863e+00" cType="0" res="-9.9000000000000000e+01" rms="0.0000000000000000e+00" purity="9.9139004945755005e-01" nType="1"/>
          <Node pos="r" depth="2" NCoef="0" IVar="5" Cut="1.8496486663818359e+01" cType="1" res="-9.9000000000000000e+01" rms="0.0000000000000000e+00" purity="7.4044466018676758e-01" nType="0">
            <Node pos="l" depth="3" NCoef="0" IVar="-1" Cut="0.0000000000000000e+00" cType="1" res="-9.9000000000000000e+01" rms="0.0000000000000000e+00" purity="8.9308923482894897e-01" nType="1"/>
            <Node pos="r" depth="3" NCoef="0" IVar="-1" Cut="0.0000000000000000e+00" cType="1" res="-9.9000000000000000e+01" rms="0.0000000000000000e+00" purity="4.9560892581939697e-01" nType="-1"/>
          </Node>
        </Node>
        <Node pos="r" depth="1" NCoef="0" IVar="1" Cut="2.8633961081504822e-01" cType="0" res="-9.9000000000000000e+01" rms="0.0000000000000000e+00" purity="1.9285102188587189e-01" nType="0">
          <Node pos="l" depth="2" NCoef="0" IVar="0" Cut="1.0257452726364136e+00" cType="1" res="-9.9000000000000000e+01" rms="0.0000000000000000e+00" purity="5.6773513555526733e-01" nType="0">
            <Node pos="l" depth="3" NCoef="0" IVar="-1" Cut="0.0000000000000000e+00" cType="1" res="-9.9000000000000000e+01" rms="0.0000000000000000e+00" purity="8.0049282312393188e-01" nType="1"/>
            <Node pos="r" depth="3" NCoef="0" IVar="-1" Cut="0.0000000000000000e+00" cType="1" res="-9.9000000000000000e+01" rms="0.0000000000000000e+00" purity="3.8150718808174133e-01" nType="-1"/>
          </Node>
          <Node pos="r" depth="2" NCoef="0" IVar="-1" Cut="1.3513616323471069e+00" cType="0" res="-9.9000000000000000e+01" rms="0.0000000000000000e+00" purity="6.5661415457725525e-02" nType="-1"/>
        </Node>
      </Node>
    </BinaryTree>
    <BinaryTree type="DecisionTree" boostWeight="9.2753705990218005e-01" itree="4">
      <Node pos="s" depth="0" NCoef="0" IVar="0" Cut="2.3620338439941406e+00" cType="0" res="-9.9000000000000000e+01" rms="0.0000000000000000e+00" purity="6.1185801029205322e-01" nType="0">
        <Node pos="l" depth="1" NCoef="0" IVar="-1" Cut="7.6462233066558838e-01" cType="1" res="-9.9000000000000000e+01" rms="0.0000000000000000e+00" purity="8.0755233764648438e-01" nType="1"/>
        <Node pos="r" depth="1" NCoef="0" IVar="1" Cut="1.4658424258232117e-01" cType="0" res="-9.9000000000000000e+01" rms="0.0000000000000000e+00" purity="3.6891031265258789e-01" nType="0">
          <Node pos="l" depth="2" NCoef="0" IVar="3" Cut="9.9801510572433472e-01" cType="0" res="-9.9000000000000000e+01" rms="0.0000000000000000e+00" purity="6.7649441957473755e-01" nType="0">
            <Node pos="l" depth="3" NCoef="0" IVar="-1" Cut="0.0000000000000000e+00" cType="1" res="-9.9000000000000000e+01" rms="0.0000000000000000e+00" purity="8.5156482458114624e-01" nType="1"/>
            <Node pos="r" depth="3" NCoef="0" IVar="-1" Cut="0.0000000000000000e+00" cType="1" res="-9.9000000000000000e+01" rms="0.0000000000000000e+00" purity="0.0000000000000000e+00" nType="-1"/>
          </Node>
          <Node pos="r" depth="2" NCoef="0" IVar="-1" Cut="0.0000000000000000e+00" cType="1" res="-9.9000000000000000e+01" rms="0.0000000000000000e+00" purity="0.0000000000000000e+00" nType="-1"/>
        </Node>
      </Node>
    </BinaryTree>
    <BinaryTree type="DecisionTree" boostWeight="8.5653542993974441e-01" itree="5">
      <Node pos="s" depth="0" NCoef="0" IVar="2" Cut="1.7657115936279297e+01" cType="0" res="-9.9000000000000000e+01" rms="0.0000000000000000e+00" purity="5.4634362459182739e-01" nType="0">
        <Node pos="l" depth="1" NCoef="0" IVar="-1" Cut="0.0000000000000000e+00" cType="1" res="-9.9000000000000000e+01" rms="0.0000000000000000e+00" purity="1.0000000000000000e+00" nType="1"/>
        <Node pos="r" depth="1" NCoef="0" IVar="2" Cut="7.5150856971740723e+00" cType="0" res="-9.9000000000000000e+01" rms="0.0000000000000000e+00" purity="4.1985189914703369e-01" nType="0">
          <Node pos="l" depth="2" NCoef="0" IVar="4" Cut="1.3676650524139404e+00" cType="1" res="-9.9000000000000000e+01" rms="0.0000000000000000e+00" purity="6.3616424798965454e-01" nType="0">
            <Node pos="l" depth="3" NCoef="0" IVar="-1" Cut="0.0000000000000000e+00" cType="1" res="-9.9000000000000000e+01" rms="0.0000000000000000e+00" purity="8.4834474325180054e-01" nType="1"/>
            <Node pos="r" depth="3" NCoef="0" IVar="-1" Cut="0.0000000000000000e+00" cType="1" res="-9.9000000000000000e+01" rms="0.0000000000000000e+00" purity="3.2963293790817261e-01" nType="-1"/>
          </Node>
          <Node pos="r" depth="2" NCoef="0" IVar="5" Cut="2.0314487457275391e+01" cType="1" res="-9.9000000000000000e+01" rms="0.0000000000000000e+00" purity="2.3199871182441711e-01" nType="0">
            <Node pos="l" depth="3" NCoef="0" IVar="-1" Cut="0.0000000000000000e+00" cType="1" res="-9.9000000000000000e+01" rms="0.0000000000000000e+00" purity="5.9071129560470581e-01" nType="1"/>
            <Node pos="r" depth="3" NCoef="0" IVar="-1" Cut="0.0000000000000000e+00" cType="1" res="-9.9000000000000000e+01" rms="0.0000000000000000e+00" purity="4.6196471899747849e-02" nType="-1"/>
          </Node>
        </Node>
      </Node>
    </BinaryTree>
    <BinaryTree type="DecisionTree" boostWeight="1.1298840773056831e+00" itree="6">
      <Node pos="s" depth="0" NCoef="0" IVar="0" Cut="1.6322352886199951e+00" cType="0" res="-9.9000000000000000e+01" rms="0.0000000000000000e+00" purity="5.4202699661254883e-01" nType="0">
        <Node pos="l" depth="1" NCoef="0" IVar="1" Cut="9.3124449253082275e-01" cType="1" res="-9.9000000000000000e+01" rms="0.0000000000000000e+00" purity="8.0255478620529175e-01" nType="0">
          <Node pos="l" depth="2" NCoef="0" IVar="-1" Cut="2.4421615600585938e+00" cType="0" res="-9.9000000000000000e+01" rms="0.0000000000000000e+00" purity="9.0421432256698608e-01" nType="1"/>
          <Node pos="r" depth="2" NCoef="0" IVar="-1" Cut="0.0000000000000000e+00" cType="1" res="-9.9000000000000000e+01" rms="0.0000000000000000e+00" purity="1.6080817580223083e-01" nType="-1"/>
        </Node>
        <Node pos="r" depth="1" NCoef="0" IVar="1" Cut="3.9806985855102539e-01" cType="0" res="-9.9000000000000000e+01" rms="0.0000000000000000e+00" purity="2.6666992902755737e-01" nType="0">
          <Node pos="l" depth="2" NCoef="0" IVar="2" Cut="4.8180136680603027e+00" cType="0" res="-9.9000000000000000e+01" rms="0.0000000000000000e+00" purity="6.4283883571624756e-01" nType="0">
            <Node pos="l" depth="3" NCoef="0" IVar="-1" Cut="0.0000000000000000e+00" cType="1" res="-9.9000000000000000e+01" rms="0.0000000000000000e+00" purity="8.5751467943191528e-01" nType="1"/>
            <Node pos="r" depth="3" NCoef="0" IVar="-1" Cut="0.0000000000000000e+00" cType="1" res="-9.9000000000000000e+01" rms="0.0000000000000000e+00" purity="0.0000000000000000e+00" nType="-1"/>
          </Node>
          <Node pos="r" depth="2" NCoef="0" IVar="-1" Cut="1.1990242004394531e+01" cType="0" res="-9.9000000000000000e+01" rms="0.0000000000000000e+00" purity="7.1824900805950165e-02" nType="-1"/>
        </Node>
      </Node>
    </BinaryTree>
    <BinaryTree type="DecisionTree" boostWeight="1.0469528693829564e+00" itree="7">
      <Node pos="s" depth="0" NCoef="0" IVar="1" Cut="4.2541137337684631e-01" cType="0" res="-9.9000000000000000e+01" rms="0.0000000000000000e+00" purity="4.9667969346046448e-01" nType="0">
        <Node pos="l" depth="1" NCoef="0" IVar="3" Cut="9.9699896574020386e-01" cType="0" res="-9.9000000000000000e+01" rms="0.0000000000000000e+00" purity="7.6495867967605591e-01" nType="0">
          <Node pos="l" depth="2" NCoef="0" IVar="2" Cut="6.2713886260986328e+01" cType="1" res="-9.9000000000000000e+01" rms="0.0000000000000000e+00" purity="8.3926099538803101e-01" nType="0">
            <Node pos="l" depth="3" NCoef="0" IVar="-1" Cut="0.0000000000000000e+00" cType="1" res="-9.9000000000000000e+01" rms="0.0000000000000000e+00" purity="9.4411349296569824e-01" nType="1"/>
            <Node pos="r" depth="3" NCoef="0" IVar="-1" Cut="0.0000000000000000e+00" cType="1" res="-9.9000000000000000e+01" rms="0.0000000000000000e+00" purity="3.6660224199295044e-01" nType="-1"/>
          </Node>
          <Node pos="r" depth="2" NCoef="0" IVar="-1" Cut="0.0000000000000000e+00" cType="1" res="-9.9000000000000000e+01" rms="0.0000000000000000e+00" purity="1.4133054018020630e-01" nType="-1"/>
        </Node>
        <Node pos="r" depth="1" NCoef="0" IVar="2" Cut="1.0041793823242188e+01" cType="0" res="-9.9000000000000000e+01" rms="0.0000000000000000e+00" purity="3.0650603771209717e-01" nType="0">
          <Node pos="l" depth="2" NCoef="0" IVar="1" Cut="3.0427211523056030e-01" cType="1" res="-9.9000000000000000e+01" rms="0.0000000000000000e+00" purity="6.1761689186096191e-01" nType="0">
            <Node pos="l" depth="3" NCoef="0" IVar="-1" Cut="0.0000000000000000e+00" cType="1" res="-9.9000000000000000e+01" rms="0.0000000000000000e+00" purity="8.2535225152969360e-01" nType="1"/>
            <Node pos="r" depth="3" NCoef="0" IVar="-1" Cut="0.0000000000000000e+00" cType="1" res="-9.9000000000000000e+01" rms="0.0000000000000000e+00" purity="1.1306178569793701e-01" nType="-1"/>
          </Node>
          <Node pos="r" depth="2" NCoef="0" IVar="-1" Cut="1.9649854660034180e+01" cType="1" res="-9.9000000000000000e+01" rms="0.0000000000000000e+00" purity="6.6234491765499115e-02" nType="-1"/>
        </Node>
      </Node>
    </BinaryTree>
    <BinaryTree type="DecisionTree" boostWeight="1.3426710671249480e+00" itree="8">
      <Node pos="s" depth="0" NCoef="0" IVar="0" Cut="3.3733615875244141e+00" cType="0" res="-9.9000000000000000e+01" rms="0.0000000000000000e+00" purity="4.8452904820442200e-01" nType="0">
        <Node pos="l" depth="1" NCoef="0" IVar="-1" Cut="4.8456459045410156e+00" cType="0" res="-9.9000000000000000e+01" rms="0.0000000000000000e+00" purity="9.8814457654953003e-01" nType="1"/>
        <Node pos="r" depth="1" NCoef="0" IVar="2" Cut="1.7699659347534180e+01" cType="0" res="-9.9000000000000000e+01" rms="0.0000000000000000e+00" purity="1.8776156008243561e-01" nType="0">
          <Node pos="l" depth="2" NCoef="0" IVar="-1" Cut="0.0000000000000000e+00" cType="1" res="-9.9000000000000000e+01" rms="0.0000000000000000e+00" purity="1.0000000000000000e+00" nType="1"/>
          <Node pos="r" depth="2" NCoef="0" IVar="-1" Cut="1.2892847061157227e+00" cType="0" res="-9.9000000000000000e+01" rms="0.0000000000000000e+00" purity="1.0419918596744537e-01" nType="-1"/>
        </Node>
      </Node>
    </BinaryTree>
    <BinaryTree type="DecisionTree" boostWeight="9.2300381647859464e-01" itree="9">
      <Node pos="s" depth="0" NCoef="0" IVar="0" Cut="1.6588978767395020e+00" cType="0" res="-9.9000000000000000e+01" rms="0.0000000000000000e+00" purity="5.9518277645111084e-01" nType="0">
        <Node pos="l" depth="1" NCoef="0" IVar="0" Cut="1.1437717437744141e+01" cType="1" res="-9.9000000000000000e+01" rms="0.0000000000000000e+00" purity="8.2737070322036743e-01" nType="0">
          <Node pos="l" depth="2" NCoef="0" IVar="5" Cut="2.3748098373413086e+01" cType="1" res="-9.9000000000000000e+01" rms="0.0000000000000000e+00" purity="8.9665311574935913e-01" nType="0">
            <Node pos="l" depth="3" NCoef="0" IVar="-1" Cut="0.0000000000000000e+00" cType="1" res="-9.9000000000000000e+01" rms="0.0000000000000000e+00" purity="9.5658361911773682e-01" nType="1"/>
            <Node pos="r" depth="3" NCoef="0" IVar="-1" Cut="0.0000000000000000e+00" cType="1" res="-9.9000000000000000e+01" rms="0.0000000000000000e+00" purity="3.7612447142601013e-01" nType="-1"/>
          </Node>
          <Node pos="r" depth="2" NCoef="0" IVar="1" Cut="6.6883438825607300e-01" cType="1" res="-9.9000000000000000e+01" rms="0.0000000000000000e+00" purity="4.5033597946166992e-01" nType="0">
            <Node pos="l" depth="3" NCoef="0" IVar="-1" Cut="0.0000000000000000e+00" cType="1" res="-9.9000000000000000e+01" rms="0.0000000000000000e+00" purity="1.0000000000000000e+00" nType="1"/>
            <Node pos="r" depth="3" NCoef="0" IVar="-1" Cut="0.0000000000000000e+00" cType="1" res="-9.9000000000000000e+01" rms="0.0000000000000000e+00" purity="1.3856500387191772e-01" nType="-1"/>
          </Node>
        </Node>
        <Node pos="r" depth="1" NCoef="0" IVar="0" Cut="1.3726179599761963e+00" cType="0" res="-9.9000000000000000e+01" rms="0.0000000000000000e+00" purity="3.5449784994125366e-01" nType="0">
          <Node pos="l" depth="2" NCoef="0" IVar="-1" Cut="8.6722927093505859e+00" cType="0" res="-9.9000000000000000e+01" rms="0.0000000000000000e+00" purity="7.8762447834014893e-01" nType="1"/>
          <Node pos="r" depth="2" NCoef="0" IVar="-1" Cut="8.8848340511322021e-01" cType="1" res="-9.9000000000000000e+01" rms="0.0000000000000000e+00" purity="1.8883447349071503e-01" nType="-1"/>
        </Node>
      </Node>
    </BinaryTree>
    <BinaryTree type="DecisionTree" boostWeight="1.0110825984775893e+00" itree="10">
      <Node pos="s" depth="0" NCoef="0" IVar="0" Cut="2.4535596370697021e+00" cType="0" res="-9.9000000000000000e+01" rms="0.0000000000000000e+00" purity="6.5003716945648193e-01" nType="0">
        <Node pos="l" depth="1" NCoef="0" IVar="-1" Cut="3.2372190952301025e+00" cType="0" res="-9.9000000000000000e+01" rms="0.0000000000000000e+00" purity="9.6321547031402588e-01" nType="1"/>
        <Node pos="r" depth="1" NCoef="0" IVar="1" Cut="1.4806015789508820e-01" cType="0" res="-9.9000000000000000e+01" rms="0.0000000000000000e+00" purity="4.7059971094131470e-01" nType="0">
          <Node pos="l" depth="2" NCoef="0" IVar="3" Cut="9.9727243185043335e-01" cType="0" res="-9.9000000000000000e+01" rms="0.0000000000000000e+00" purity="6.3416361808776855e-01" nType="0">
            <Node pos="l" depth="3" NCoef="0" IVar="-1" Cut="0.0000000000000000e+00" cType="1" res="-9.9000000000000000e+01" rms="0.0000000000000000e+00" purity="7.4297988414764404e-01" nType="1"/>
            <Node pos="r" depth="3" NCoef="0" IVar="-1" Cut="0.0000000000000000e+00" cType="1" res="-9.9000000000000000e+01" rms="0.0000000000000000e+00" purity="0.0000000000000000e+00" nType="-1"/>
          </Node>
          <Node pos="r" depth="2" NCoef="0" IVar="-1" Cut="0.0000000000000000e+00" cType="1" res="-9.9000000000000000e+01" rms="0.0000000000000000e+00" purity="0.0000000000000000e+00" nType="-1"/>
        </Node>
      </Node>
    </BinaryTree>
    <BinaryTree type="DecisionTree" boostWeight="6.9475231104617785e-01" itree="11">
      <Node pos="s" depth="0" NCoef="0" IVar="1" Cut="1.9649380445480347e-01" cType="0" res="-9.9000000000000000e+01" rms="0.0000000000000000e+00" purity="4.5770299434661865e-01" nType="0">
        <Node pos="l" depth="1" NCoef="0" IVar="0" Cut="9.4894752502441406e+00" cType="1" res="-9.9000000000000000e+01" rms="0.0000000000000000e+00" purity="6.4067900180816650e-01" nType="0">
          <Node pos="l" depth="2" NCoef="0" IVar="-1" Cut="2.0372450351715088e+00" cType="0" res="-9.9000000000000000e+01" rms="0.0000000000000000e+00" purity="7.1583038568496704e-01" nType="1"/>
          <Node pos="r" depth="2" NCoef="0" IVar="-1" Cut="8.8107246160507202e-01" cType="1" res="-9.9000000000000000e+01" rms="0.0000000000000000e+00" purity="2.5483369827270508e-01" nType="-1"/>
        </Node>
        <Node pos="r" depth="1" NCoef="0" IVar="0" Cut="4.3162026405334473e+00" cType="0" res="-9.9000000000000000e+01" rms="0.0000000000000000e+00" purity="1.4614598453044891e-01" nType="0">
          <Node pos="l" depth="2" NCoef="0" IVar="-1" Cut="0.0000000000000000e+00" cType="1" res="-9.9000000000000000e+01" rms="0.0000000000000000e+00" purity="1.0000000000000000e+00" nType="1"/>
          <Node pos="r" depth="2" NCoef="0" IVar="-1" Cut="1.4471516609191895e+01" cType="0" res="-9.9000000000000000e+01" rms="0.0000000000000000e+00" purity="6.9158621132373810e-02" nType="-1"/>
        </Node>
      </Node>
    </BinaryTree>
    <BinaryTree type="DecisionTree" boostWeight="8.9887292041970313e-01" itree="12">
      <Node pos="s" depth="0" NCoef="0" IVar="0" Cut="2.2982563972473145e+00" cType="0" res="-9.9000000000000000e+01" rms="0.0000000000000000e+00" purity="4.5658713579177856e-01" nType="0">
        <Node pos="l" depth="1" NCoef="0" IVar="1" Cut="9.4183397293090820e-01" cType="1" res="-9.9000000000000000e+01" rms="0.0000000000000000e+00" purity="7.9770272970199585e-01" nType="0">
          <Node pos="l" depth="2" NCoef="0" IVar="-1" Cut="6.7181304931640625e+01" cType="1" res="-9.9000000000000000e+01" rms="0.0000000000000000e+00" purity="8.8482958078384399e-01" nType="1"/>
          <Node pos="r" depth="2" NCoef="0" IVar="-1" Cut="0.0000000000000000e+00" cType="1" res="-9.9000000000000000e+01" rms="0.0000000000000000e+00" purity="2.2197933495044708e-01" nType="-1"/>
        </Node>
        <Node pos="r" depth="1" NCoef="0" IVar="5" Cut="1.9369688034057617e+01" cType="1" res="-9.9000000000000000e+01" rms="0.0000000000000000e+00" purity="2.1205823123455048e-01" nType="0">
          <Node pos="l" depth="2" NCoef="0" IVar="-1" Cut="0.0000000000000000e+00" cType="1" res="-9.9000000000000000e+01" rms="0.0000000000000000e+00" purity="7.9319441318511963e-01" nType="1"/>
          <Node pos="r" depth="2" NCoef="0" IVar="-1" Cut="8.6917886734008789e+00" cType="0" res="-9.9000000000000000e+01" rms="0.0000000000000000e+00" purity="1.4498829841613770e-01" nType="-1"/>
        </Node>
      </Node>
    </BinaryTree>
    <BinaryTree type="DecisionTree" boostWeight="9.0573294154530171e-01" itree="13">
      <Node pos="s" depth="0" NCoef="0" IVar="2" Cut="1.0035028457641602e+01" cType="0" res="-9.9000000000000000e+01" rms="0.0000000000000000e+00" purity="5.0657540559768677e-01" nType="0">
        <Node pos="l" depth="1" NCoef="0" IVar="4" Cut="1.6910480260848999e+00" cType="1" res="-9.9000000000000000e+01" rms="0.0000000000000000e+00" purity="8.2608741521835327e-01" nType="0">
          <Node pos="l" depth="2" NCoef="0" IVar="-1" Cut="0.0000000000000000e+00" cType="1" res="-9.9000000000000000e+01" rms="0.0000000000000000e+00" purity="1.0000000000000000e+00" nType="1"/>
          <Node pos="r" depth="2" NCoef="0" IVar="4" Cut="2.0028455257415771e+00" cType="0" res="-9.9000000000000000e+01" rms="0.0000000000000000e+00" purity="3.8760656118392944e-01" nType="0">
            <Node pos="l" depth="3" NCoef="0" IVar="-1" Cut="0.0000000000000000e+00" cType="1" res="-9.9000000000000000e+01" rms="0.0000000000000000e+00" purity="7.8746551275253296e-01" nType="1"/>
            <Node pos="r" depth="3" NCoef="0" IVar="-1" Cut="0.0000000000000000e+00" cType="1" res="-9.9000000000000000e+01" rms="0.0000000000000000e+00" purity="1.0530462116003036e-01" nType="-1"/>
          </Node>
        </Node>
        <Node pos="r" depth="1" NCoef="0" IVar="0" Cut="1.5168699026107788e+00" cType="0" res="-9.9000000000000000e+01" rms="0.0000000000000000e+00" purity="3.2577195763587952e-01" nType="0">
          <Node pos="l" depth="2" NCoef="0" IVar="1" Cut="1.5431365370750427e-01" cType="0" res="-9.9000000000000000e+01" rms="0.0000000000000000e+00" purity="4.9835658073425293e-01" nType="0">
            <Node pos="l" depth="3" NCoef="0" IVar="-1" Cut="0.0000000000000000e+00" cType="1" res="-9.9000000000000000e+01" rms="0.0000000000000000e+00" purity="6.7692768573760986e-01" nType="1"/>
            <Node pos="r" depth="3" NCoef="0" IVar="-1" Cut="0.0000000000000000e+00" cType="1" res="-9.9000000000000000e+01" rms="0.0000000000000000e+00" purity="1.5322293341159821e-01" nType="-1"/>
          </Node>
          <Node pos="r" depth="2" NCoef="0" IVar="-1" Cut="2.0067407608032227e+01" cType="1" res="-9.9000000000000000e+01" rms="0.0000000000000000e+00" purity="1.0881388932466507e-01" nType="-1"/>
        </Node>
      </Node>
    </BinaryTree>
    <BinaryTree type="DecisionTree" boostWeight="7.3882725161663731e-01" itree="14">
      <Node pos="s" depth="0" NCoef="0" IVar="4" Cut="9.1561853885650635e-01" cType="1" res="-9.9000000000000000e+01" rms="0.0000000000000000e+00" purity="5.5244880914688110e-01" nType="0">
        <Node pos="l" depth="1" NCoef="0" IVar="0" Cut="3.0063066482543945e+00" cType="0" res="-9.9000000000000000e+01" rms="0.0000000000000000e+00" purity="7.2233557701110840e-01" nType="0">
          <Node pos="l" depth="2" NCoef="0" IVar="-1" Cut="0.0000000000000000e+00" cType="1" res="-9.9000000000000000e+01" rms="0.0000000000000000e+00" purity="1.0000000000000000e+00" nType="1"/>
          <Node pos="r" depth="2" NCoef="0" IVar="1" Cut="1.4562876522541046e-01" cType="0" res="-9.9000000000000000e+01" rms="0.0000000000000000e+00" purity="5.9069126844406128e-01" nType="0">
            <Node pos="l" depth="3" NCoef="0" IVar="-1" Cut="0.0000000000000000e+00" cType="1" res="-9.9000000000000000e+01" rms="0.0000000000000000e+00" purity="7.1890711784362793e-01" nType="1"/>
            <Node pos="r" depth="3" NCoef="0" IVar="-1" Cut="0.0000000000000000e+00" cType="1" res="-9.9000000000000000e+01" rms="0.0000000000000000e+00" purity="0.0000000000000000e+00" nType="-1"/>
          </Node>
        </Node>
        <Node pos="r" depth="1" NCoef="0" IVar="5" Cut="2.3092483520507812e+01" cType="1" res="-9.9000000000000000e+01" rms="0.0000000000000000e+00" purity="4.1071906685829163e-01" nType="0">
          <Node pos="l" depth="2" NCoef="0" IVar="1" Cut="4.2588737607002258e-01" cType="0" res="-9.9000000000000000e+01" rms="0.0000000000000000e+00" purity="5.3449726104736328e-01" nType="0">
            <Node pos="l" depth="3" NCoef="0" IVar="-1" Cut="0.0000000000000000e+00" cType="1" res="-9.9000000000000000e+01" rms="0.0000000000000000e+00" purity="8.5256558656692505e-01" nType="1"/>
            <Node pos="r" depth="3" NCoef="0" IVar="-1" Cut="0.0000000000000000e+00" cType="1" res="-9.9000000000000000e+01" rms="0.0000000000000000e+00" purity="3.3188140392303467e-01" nType="-1"/>
          </Node>
          <Node pos="r" depth="2" NCoef="0" IVar="-1" Cut="1.5879696607589722e+00" cType="0" res="-9.9000000000000000e+01" rms="0.0000000000000000e+00" purity="7.3874160647392273e-02" nType="-1"/>
        </Node>
      </Node>
    </BinaryTree>
    <BinaryTree type="DecisionTree" boostWeight="8.0483819663935685e-01" itree="15">
      <Node pos="s" depth="0" NCoef="0" IVar="0" Cut="5.9428777694702148e+00" cType="0" res="-9.9000000000000000e+01" rms="0.0000000000000000e+00" purity="4.2088553309440613e-01" nType="0">
        <Node pos="l" depth="1" NCoef="0" IVar="-1" Cut="0.0000000000000000e+00" cType="1" res="-9.9000000000000000e+01" rms="0.0000000000000000e+00" purity="1.0000000000000000e+00" nType="1"/>
        <Node pos="r" depth="1" NCoef="0" IVar="1" Cut="8.0188614130020142e-01" cType="0" res="-9.9000000000000000e+01" rms="0.0000000000000000e+00" purity="2.9388004541397095e-01" nType="0">
          <Node pos="l" depth="2" NCoef="0" IVar="-1" Cut="0.0000000000000000e+00" cType="1" res="-9.9000000000000000e+01" rms="0.0000000000000000e+00" purity="1.0000000000000000e+00" nType="1"/>
          <Node pos="r" depth="2" NCoef="0" IVar="-1" Cut="1.0700444221496582e+01" cType="0" res="-9.9000000000000000e+01" rms="0.0000000000000000e+00" purity="2.2344484925270081e-01" nType="-1"/>
        </Node>
      </Node>
    </BinaryTree>
    <BinaryTree type="DecisionTree" boostWeight="1.0152662166710964e+00" itree="16">
      <Node pos="s" depth="0" NCoef="0" IVar="0" Cut="1.6318025588989258e+00" cType="0" res="-9.9000000000000000e+01" rms="0.0000000000000000e+00" purity="6.5878188610076904e-01" nType="0">
        <Node pos="l" depth="1" NCoef="0" IVar="5" Cut="2.2879184722900391e+01" cType="1" res="-9.9000000000000000e+01" rms="0.0000000000000000e+00" purity="8.4278935194015503e-01" nType="0">
          <Node pos="l" depth="2" NCoef="0" IVar="-1" Cut="1.1842177391052246e+01" cType="0" res="-9.9000000000000000e+01" rms="0.0000000000000000e+00" purity="9.1990321874618530e-01" nType="1"/>
          <Node pos="r" depth="2" NCoef="0" IVar="-1" Cut="0.0000000000000000e+00" cType="1" res="-9.9000000000000000e+01" rms="0.0000000000000000e+00" purity="4.7509399056434631e-01" nType="-1"/>
        </Node>
        <Node pos="r" depth="1" NCoef="0" IVar="4" Cut="2.0446867942810059e+00" cType="0" res="-9.9000000000000000e+01" rms="0.0000000000000000e+00" purity="3.5347104072570801e-01" nType="0">
          <Node pos="l" depth="2" NCoef="0" IVar="-1" Cut="0.0000000000000000e+00" cType="1" res="-9.9000000000000000e+01" rms="0.0000000000000000e+00" purity="8.9818447828292847e-01" nType="1"/>
          <Node pos="r" depth="2" NCoef="0" IVar="2" Cut="8.6976051330566406e+00" cType="0" res="-9.9000000000000000e+01" rms="0.0000000000000000e+00" purity="1.8939405679702759e-01" nType="0">
            <Node pos="l" depth="3" NCoef="0" IVar="-1" Cut="0.0000000000000000e+00" cType="1" res="-9.9000000000000000e+01" rms="0.0000000000000000e+00" purity="7.9093748331069946e-01" nType="1"/>
            <Node pos="r" depth="3" NCoef="0" IVar="-1" Cut="0.0000000000000000e+00" cType="1" res="-9.9000000000000000e+01" rms="0.0000000000000000e+00" purity="0.0000000000000000e+00" nType="-1"/>
          </Node>
        </Node>
      </Node>
    </BinaryTree>
    <BinaryTree type="DecisionTree" boostWeight="7.9994272246231313e-01" itree="17">
      <Node pos="s" depth="0" NCoef="0" IVar="0" Cut="2.5143582820892334e+00" cType="0" res="-9.9000000000000000e+01" rms="0.0000000000000000e+00" purity="4.9011668562889099e-01" nType="0">
        <Node pos="l" depth="1" NCoef="0" IVar="5" Cut="1.2447675704956055e+01" cType="0" res="-9.9000000000000000e+01" rms="0.0000000000000000e+00" purity="8.7312376499176025e-01" nType="0">
          <Node pos="l" depth="2" NCoef="0" IVar="-1" Cut="0.0000000000000000e+00" cType="1" res="-9.9000000000000000e+01" rms="0.0000000000000000e+00" purity="1.0000000000000000e+00" nType="1"/>
          <Node pos="r" depth="2" NCoef="0" IVar="5" Cut="1.1293453216552734e+01" cType="1" res="-9.9000000000000000e+01" rms="0.0000000000000000e+00" purity="5.1611059904098511e-01" nType="0">
            <Node pos="l" depth="3" NCoef="0" IVar="-1" Cut="0.0000000000000000e+00" cType="1" res="-9.9000000000000000e+01" rms="0.0000000000000000e+00" purity="1.0000000000000000e+00" nType="1"/>
            <Node pos="r" depth="3" NCoef="0" IVar="-1" Cut="0.0000000000000000e+00" cType="1" res="-9.9000000000000000e+01" rms="0.0000000000000000e+00" purity="2.2770224511623383e-01" nType="-1"/>
          </Node>
        </Node>
        <Node pos="r" depth="1" NCoef="0" IVar="2" Cut="1.4472567558288574e+01" cType="0" res="-9.9000000000000000e+01" rms="0.0000000000000000e+00" purity="3.1696432828903198e-01" nType="0">
          <Node pos="l" depth="2" NCoef="0" IVar="-1" Cut="0.0000000000000000e+00" cType="1" res="-9.9000000000000000e+01" rms="0.0000000000000000e+00" purity="9.4333600997924805e-01" nType="1"/>
          <Node pos="r" depth="2" NCoef="0" IVar="-1" Cut="4.9227967262268066e+00" cType="0" res="-9.9000000000000000e+01" rms="0.0000000000000000e+00" purity="2.4626545608043671e-01" nType="-1"/>
        </Node>
      </Node>
    </BinaryTree>
    <BinaryTree type="DecisionTree" boostWeight="6.1368720515612685e-01" itree="18">
      <Node pos="s" depth="0" NCoef="0" IVar="1" Cut="5.2663326263427734e-01" cType="0" res="-9.9000000000000000e+01" rms="0.0000000000000000e+00" purity="5.4713326692581177e-01" nType="0">
        <Node pos="l" depth="1" NCoef="0" IVar="3" Cut="9.9654364585876465e-01" cType="0" res="-9.9000000000000000e+01" rms="0.0000000000000000e+00" purity="7.8756278753280640e-01" nType="0">
          <Node pos="l" depth="2" NCoef="0" IVar="5" Cut="2.2786590576171875e+01" cType="1" res="-9.9000000000000000e+01" rms="0.0000000000000000e+00" purity="9.0521597862243652e-01" nType="0">
            <Node pos="l" depth="3" NCoef="0" IVar="-1" Cut="0.0000000000000000e+00" cType="1" res="-9.9000000000000000e+01" rms="0.0000000000000000e+00" purity="1.0000000000000000e+00" nType="1"/>
            <Node pos="r" depth="3" NCoef="0" IVar="-1" Cut="0.0000000000000000e+00" cType="1" res="-9.9000000000000000e+01" rms="0.0000000000000000e+00" purity="3.6968556046485901e-01" nType="-1"/>
          </Node>
          <Node pos="r" depth="2" NCoef="0" IVar="-1" Cut="0.0000000000000000e+00" cType="1" res="-9.9000000000000000e+01" rms="0.0000000000000000e+00" purity="4.5780923217535019e-02" nType="-1"/>
        </Node>
        <Node pos="r" depth="1" NCoef="0" IVar="5" Cut="1.6492729187011719e+01" cType="1" res="-9.9000000000000000e+01" rms="0.0000000000000000e+00" purity="4.2725062370300293e-01" nType="0">
          <Node pos="l" depth="2" NCoef="0" IVar="-1" Cut="0.0000000000000000e+00" cType="1" res="-9.9000000000000000e+01" rms="0.0000000000000000e+00" purity="1.0000000000000000e+00" nType="1"/>
          <Node pos="r" depth="2" NCoef="0" IVar="-1" Cut="1.2738482952117920e+00" cType="0" res="-9.9000000000000000e+01" rms="0.0000000000000000e+00" purity="3.5308054089546204e-01" nType="-1"/>
        </Node>
      </Node>
    </BinaryTree>
    <BinaryTree type="DecisionTree" boostWeight="8.2264639517782689e-01" itree="19">
      <Node pos="s" depth="0" NCoef="0" IVar="1" Cut="1.5102925896644592e-01" cType="0" res="-9.9000000000000000e+01" rms="0.0000000000000000e+00" purity="6.9739520549774170e-01" nType="0">
        <Node pos="l" depth="1" NCoef="0" IVar="2" Cut="6.7176696777343750e+01" cType="1" res="-9.9000000000000000e+01" rms="0.0000000000000000e+00" purity="7.7912491559982300e-01" nType="0">
          <Node pos="l" depth="2" NCoef="0" IVar="-1" Cut="6.4365606307983398e+00" cType="0" res="-9.9000000000000000e+01" rms="0.0000000000000000e+00" purity="8.3395624160766602e-01" nType="1"/>
          <Node pos="r" depth="2" NCoef="0" IVar="-1" Cut="0.0000000000000000e+00" cType="1" res="-9.9000000000000000e+01" rms="0.0000000000000000e+00" purity="1.9154214859008789e-01" nType="-1"/>
        </Node>
        <Node pos="r" depth="1" NCoef="0" IVar="0" Cut="4.2471337318420410e+00" cType="0" res="-9.9000000000000000e+01" rms="0.0000000000000000e+00" purity="3.7624955177307129e-01" nType="0">
          <Node pos="l" depth="2" NCoef="0" IVar="-1" Cut="0.0000000000000000e+00" cType="1" res="-9.9000000000000000e+01" rms="0.0000000000000000e+00" purity="1.0000000000000000e+00" nType="1"/>
          <Node pos="r" depth="2" NCoef="0" IVar="2" Cut="9.6557655334472656e+00" cType="0" res="-9.9000000000000000e+01" rms="0.0000000000000000e+00" purity="2.2162292897701263e-01" nType="0">
            <Node pos="l" depth="3" NCoef="0" IVar="-1" Cut="0.0000000000000000e+00" cType="1" res="-9.9000000000000000e+01" rms="0.0000000000000000e+00" purity="5.6576693058013916e-01" nType="1"/>
            <Node pos="r" depth="3" NCoef="0" IVar="-1" Cut="0.0000000000000000e+00" cType="1" res="-9.9000000000000000e+01" rms="0.0000000000000000e+00" purity="0.0000000000000000e+00" nType="-1"/>
          </Node>
        </Node>
      </Node>
    </BinaryTree>
    <BinaryTree type="DecisionTree" boostWeight="8.4276349022734642e-01" itree="20">
      <Node pos="s" depth="0" NCoef="0" IVar="2" Cut="1.1943872451782227e+01" cType="0" res="-9.9000000000000000e+01" rms="0.0000000000000000e+00" purity="5.1309454441070557e-01" nType="0">
        <Node pos="l" depth="1" NCoef="0" IVar="1" Cut="7.6121979951858521e-01" cType="1" res="-9.9000000000000000e+01" rms="0.0000000000000000e+00" purity="7.4268007278442383e-01" nType="0">
          <Node pos="l" depth="2" NCoef="0" IVar="1" Cut="4.4931404292583466e-02" cType="0" res="-9.9000000000000000e+01" rms="0.0000000000000000e+00" purity="9.0012246370315552e-01" nType="0">
            <Node pos="l" depth="3" NCoef="0" IVar="-1" Cut="0.0000000000000000e+00" cType="1" res="-9.9000000000000000e+01" rms="0.0000000000000000e+00" purity="1.0000000000000000e+00" nType="1"/>
            <Node pos="r" depth="3" NCoef="0" IVar="-1" Cut="0.0000000000000000e+00" cType="1" res="-9.9000000000000000e+01" rms="0.0000000000000000e+00" purity="2.0030480623245239e-01" nType="-1"/>
          </Node>
          <Node pos="r" depth="2" NCoef="0" IVar="1" Cut="8.2044559717178345e-01" cType="0" res="-9.9000000000000000e+01" rms="0.0000000000000000e+00" purity="4.4205310940742493e-01" nType="0">
            <Node pos="l" depth="3" NCoef="0" IVar="-1" Cut="0.0000000000000000e+00" cType="1" res="-9.9000000000000000e+01" rms="0.0000000000000000e+00" purity="1.0000000000000000e+00" nType="1"/>
            <Node pos="r" depth="3" NCoef="0" IVar="-1" Cut="0.0000000000000000e+00" cType="1" res="-9.9000000000000000e+01" rms="0.0000000000000000e+00" purity="1.0736158490180969e-01" nType="-1"/>
          </Node>
        </Node>
        <Node pos="r" depth="1" NCoef="0" IVar="1" Cut="7.5834912061691284e-01" cType="0" res="-9.9000000000000000e+01" rms="0.0000000000000000e+00" purity="3.4344953298568726e-01" nType="0">
          <Node pos="l" depth="2" NCoef="0" IVar="-1" Cut="0.0000000000000000e+00" cType="1" res="-9.9000000000000000e+01" rms="0.0000000000000000e+00" purity="8.5990995168685913e-01" nType="1"/>
          <Node pos="r" depth="2" NCoef="0" IVar="-1" Cut="1.4823629856109619e+00" cType="0" res="-9.9000000000000000e+01" rms="0.0000000000000000e+00" purity="2.5942897796630859e-01" nType="-1"/>
        </Node>
      </Node>
    </BinaryTree>
    <BinaryTree type="DecisionTree" boostWeight="8.7817182797037363e-01" itree="21">
      <Node pos="s" depth="0" NCoef="0" IVar="3" Cut="9.9801522493362427e-01" cType="0" res="-9.9000000000000000e+01" rms="0.0000000000000000e+00" purity="5.8000922203063965e-01" nType="0">
        <Node pos="l" depth="1" NCoef="0" IVar="3" Cut="9.9971729516983032e-01" cType="0" res="-9.9000000000000000e+01" rms="0.0000000000000000e+00" purity="6.9349372386932373e-01" nType="0">
          <Node pos="l" depth="2" NCoef="0" IVar="2" Cut="6.2522632598876953e+01" cType="1" res="-9.9000000000000000e+01" rms="0.0000000000000000e+00" purity="8.4454888105392456e-01" nType="0">
            <Node pos="l" depth="3" NCoef="0" IVar="-1" Cut="0.0000000000000000e+00" cType="1" res="-9.9000000000000000e+01" rms="0.0000000000000000e+00" purity="9.1794931888580322e-01" nType="1"/>
            <Node pos="r" depth="3" NCoef="0" IVar="-1" Cut="0.0000000000000000e+00" cType="1" res="-9.9000000000000000e+01" rms="0.0000000000000000e+00" purity="4.3547555804252625e-01" nType="-1"/>
          </Node>
          <Node pos="r" depth="2" NCoef="0" IVar="4" Cut="9.8509579896926880e-01" cType="1" res="-9.9000000000000000e+01" rms="0.0000000000000000e+00" purity="4.2812901735305786e-01" nType="0">
            <Node pos="l" depth="3" NCoef="0" IVar="-1" Cut="0.0000000000000000e+00" cType="1" res="-9.9000000000000000e+01" rms="0.0000000000000000e+00" purity="7.6314949989318848e-01" nType="1"/>
            <Node pos="r" depth="3" NCoef="0" IVar="-1" Cut="0.0000000000000000e+00" cType="1" res="-9.9000000000000000e+01" rms="0.0000000000000000e+00" purity="1.8825674057006836e-01" nType="-1"/>
          </Node>
        </Node>
        <Node pos="r" depth="1" NCoef="0" IVar="2" Cut="6.1294574737548828e+00" cType="0" res="-9.9000000000000000e+01" rms="0.0000000000000000e+00" purity="1.1424948275089264e-01" nType="0">
          <Node pos="l" depth="2" NCoef="0" IVar="-1" Cut="0.0000000000000000e+00" cType="1" res="-9.9000000000000000e+01" rms="0.0000000000000000e+00" purity="6.1075323820114136e-01" nType="1"/>
          <Node pos="r" depth="2" NCoef="0" IVar="-1" Cut="4.4094002246856689e-01" cType="0" res="-9.9000000000000000e+01" rms="0.0000000000000000e+00" purity="4.1397284716367722e-02" nType="-1"/>
        </Node>
      </Node>
    </BinaryTree>
    <BinaryTree type="DecisionTree" boostWeight="8.4004212877774631e-01" itree="22">
      <Node pos="s" depth="0" NCoef="0" IVar="0" Cut="1.5289448499679565e+00" cType="0" res="-9.9000000000000000e+01" rms="0.0000000000000000e+00" purity="4.8165071010589600e-01" nType="0">
        <Node pos="l" depth="1" NCoef="0" IVar="3" Cut="9.9733299016952515e-01" cType="0" res="-9.9000000000000000e+01" rms="0.0000000000000000e+00" purity="6.7656415700912476e-01" nType="0">
          <Node pos="l" depth="2" NCoef="0" IVar="-1" Cut="1.1042169332504272e+00" cType="1" res="-9.9000000000000000e+01" rms="0.0000000000000000e+00" purity="7.6883029937744141e-01" nType="1"/>
          <Node pos="r" depth="2" NCoef="0" IVar="-1" Cut="6.9921398162841797e-01" cType="0" res="-9.9000000000000000e+01" rms="0.0000000000000000e+00" purity="1.3242079317569733e-01" nType="-1"/>
        </Node>
        <Node pos="r" depth="1" NCoef="0" IVar="0" Cut="1.0087929964065552e+00" cType="0" res="-9.9000000000000000e+01" rms="0.0000000000000000e+00" purity="1.9499622285366058e-01" nType="0">
          <Node pos="l" depth="2" NCoef="0" IVar="0" Cut="1.1068254709243774e+00" cType="1" res="-9.9000000000000000e+01" rms="0.0000000000000000e+00" purity="4.4534227252006531e-01" nType="0">
            <Node pos="l" depth="3" NCoef="0" IVar="-1" Cut="0.0000000000000000e+00" cType="1" res="-9.9000000000000000e+01" rms="0.0000000000000000e+00" purity="7.9324167966842651e-01" nType="1"/>
            <Node pos="r" depth="3" NCoef="0" IVar="-1" Cut="0.0000000000000000e+00" cType="1" res="-9.9000000000000000e+01" rms="0.0000000000000000e+00" purity="1.1117687821388245e-01" nType="-1"/>
          </Node>
          <Node pos="r" depth="2" NCoef="0" IVar="-1" Cut="0.0000000000000000e+00" cType="1" res="-9.9000000000000000e+01" rms="0.0000000000000000e+00" purity="0.0000000000000000e+00" nType="-1"/>
        </Node>
      </Node>
    </BinaryTree>
    <BinaryTree type="DecisionTree" boostWeight="7.3992244176480293e-01" itree="23">
      <Node pos="s" depth="0" NCoef="0" IVar="1" Cut="1.5048247575759888e-01" cType="0" res="-9.9000000000000000e+01" rms="0.0000000000000000e+00" purity="5.4195654392242432e-01" nType="0">
        <Node pos="l" depth="1" NCoef="0" IVar="1" Cut="4.7492086887359619e-01" cType="1" res="-9.9000000000000000e+01" rms="0.0000000000000000e+00" purity="6.3969540596008301e-01" nType="0">
          <Node pos="l" depth="2" NCoef="0" IVar="-1" Cut="1.9445005416870117e+01" cType="1" res="-9.9000000000000000e+01" rms="0.0000000000000000e+00" purity="8.4642422199249268e-01" nType="1"/>
          <Node pos="r" depth="2" NCoef="0" IVar="0" Cut="1.5904972553253174e+00" cType="0" res="-9.9000000000000000e+01" rms="0.0000000000000000e+00" purity="4.0695688128471375e-01" nType="0">
            <Node pos="l" depth="3" NCoef="0" IVar="-1" Cut="0.0000000000000000e+00" cType="1" res="-9.9000000000000000e+01" rms="0.0000000000000000e+00" purity="6.3350057601928711e-01" nType="1"/>
            <Node pos="r" depth="3" NCoef="0" IVar="-1" Cut="0.0000000000000000e+00" cType="1" res="-9.9000000000000000e+01" rms="0.0000000000000000e+00" purity="1.9791415333747864e-01" nType="-1"/>
          </Node>
        </Node>
        <Node pos="r" depth="1" NCoef="0" IVar="5" Cut="1.8342899322509766e+01" cType="1" res="-9.9000000000000000e+01" rms="0.0000000000000000e+00" purity="1.4869852364063263e-01" nType="0">
          <Node pos="l" depth="2" NCoef="0" IVar="-1" Cut="0.0000000000000000e+00" cType="1" res="-9.9000000000000000e+01" rms="0.0000000000000000e+00" purity="7.6599186658859253e-01" nType="1"/>
          <Node pos="r" depth="2" NCoef="0" IVar="-1" Cut="1.6043051481246948e+00" cType="0" res="-9.9000000000000000e+01" rms="0.0000000000000000e+00" purity="5.2000846713781357e-02" nType="-1"/>
        </Node>
      </Node>
    </BinaryTree>
    <BinaryTree type="DecisionTree" boostWeight="6.3565210026882024e-01" itree="24">
      <Node pos="s" depth="0" NCoef="0" IVar="2" Cut="1.6153551101684570e+01" cType="0" res="-9.9000000000000000e+01" rms="0.0000000000000000e+00" purity="5.1745963096618652e-01" nType="0">
        <Node pos="l" depth="1" NCoef="0" IVar="-1" Cut="9.9993997812271118e-01" cType="0" res="-9.9000000000000000e+01" rms="0.0000000000000000e+00" purity="9.8190248012542725e-01" nType="1"/>
        <Node pos="r" depth="1" NCoef="0" IVar="0" Cut="1.4522796869277954e+00" cType="0" res="-9.9000000000000000e+01" rms="0.0000000000000000e+00" purity="4.2767450213432312e-01" nType="0">
          <Node pos="l" depth="2" NCoef="0" IVar="1" Cut="8.0900901556015015e-01" cType="1" res="-9.9000000000000000e+01" rms="0.0000000000000000e+00" purity="5.6232911348342896e-01" nType="0">
            <Node pos="l" depth="3" NCoef="0" IVar="-1" Cut="0.0000000000000000e+00" cType="1" res="-9.9000000000000000e+01" rms="0.0000000000000000e+00" purity="6.7389637231826782e-01" nType="1"/>
            <Node pos="r" depth="3" NCoef="0" IVar="-1" Cut="0.0000000000000000e+00" cType="1" res="-9.9000000000000000e+01" rms="0.0000000000000000e+00" purity="8.1669107079505920e-02" nType="-1"/>
          </Node>
          <Node pos="r" depth="2" NCoef="0" IVar="-1" Cut="2.0415128707885742e+01" cType="1" res="-9.9000000000000000e+01" rms="0.0000000000000000e+00" purity="2.2440059483051300e-01" nType="-1"/>
        </Node>
      </Node>
    </BinaryTree>
    <BinaryTree type="DecisionTree" boostWeight="1.3422054777605861e+00" itree="25">
      <Node pos="s" depth="0" NCoef="0" IVar="1" Cut="5.2315890789031982e-01" cType="0" res="-9.9000000000000000e+01" rms="0.0000000000000000e+00" purity="3.7371808290481567e-01" nType="0">
        <Node pos="l" depth="1" NCoef="0" IVar="-1" Cut="5.4134696722030640e-01" cType="0" res="-9.9000000000000000e+01" rms="0.0000000000000000e+00" purity="9.2310476303100586e-01" nType="1"/>
        <Node pos="r" depth="1" NCoef="0" IVar="0" Cut="3.1417109966278076e+00" cType="0" res="-9.9000000000000000e+01" rms="0.0000000000000000e+00" purity="2.0122787356376648e-01" nType="0">
          <Node pos="l" depth="2" NCoef="0" IVar="-1" Cut="0.0000000000000000e+00" cType="1" res="-9.9000000000000000e+01" rms="0.0000000000000000e+00" purity="1.0000000000000000e+00" nType="1"/>
          <Node pos="r" depth="2" NCoef="0" IVar="-1" Cut="9.6397085189819336e+00" cType="0" res="-9.9000000000000000e+01" rms="0.0000000000000000e+00" purity="6.9671407341957092e-02" nType="-1"/>
        </Node>
      </Node>
    </BinaryTree>
    <BinaryTree type="DecisionTree" boostWeight="9.4561166512970674e-01" itree="26">
      <Node pos="s" depth="0" NCoef="0" IVar="2" Cut="1.1927815437316895e+01" cType="0" res="-9.9000000000000000e+01" rms="0.0000000000000000e+00" purity="4.2049017548561096e-01" nType="0">
        <Node pos="l" depth="1" NCoef="0" IVar="-1" Cut="1.8615071773529053e+00" cType="1" res="-9.9000000000000000e+01" rms="0.0000000000000000e+00" purity="8.9595741033554077e-01" nType="1"/>
        <Node pos="r" depth="1" NCoef="0" IVar="5" Cut="2.4226440429687500e+01" cType="0" res="-9.9000000000000000e+01" rms="0.0000000000000000e+00" purity="2.5205996632575989e-01" nType="0">
          <Node pos="l" depth="2" NCoef="0" IVar="4" Cut="5.9558612108230591e-01" cType="1" res="-9.9000000000000000e+01" rms="0.0000000000000000e+00" purity="7.4425405263900757e-01" nType="0">
            <Node pos="l" depth="3" NCoef="0" IVar="-1" Cut="0.0000000000000000e+00" cType="1" res="-9.9000000000000000e+01" rms="0.0000000000000000e+00" purity="9.7479420900344849e-01" nType="1"/>
            <Node pos="r" depth="3" NCoef="0" IVar="-1" Cut="0.0000000000000000e+00" cType="1" res="-9.9000000000000000e+01" rms="0.0000000000000000e+00" purity="0.0000000000000000e+00" nType="-1"/>
          </Node>
          <Node pos="r" depth="2" NCoef="0" IVar="-1" Cut="7.0909881591796875e+00" cType="0" res="-9.9000000000000000e+01" rms="0.0000000000000000e+00" purity="1.6273285448551178e-01" nType="-1"/>
        </Node>
      </Node>
    </BinaryTree>
    <BinaryTree type="DecisionTree" boostWeight="1.1468349539032683e+00" itree="27">
      <Node pos="s" depth="0" NCoef="0" IVar="2" Cut="2.2477399826049805e+01" cType="0" res="-9.9000000000000000e+01" rms="0.0000000000000000e+00" purity="4.2201608419418335e-01" nType="0">
        <Node pos="l" depth="1" NCoef="0" IVar="-1" Cut="0.0000000000000000e+00" cType="1" res="-9.9000000000000000e+01" rms="0.0000000000000000e+00" purity="1.0000000000000000e+00" nType="1"/>
        <Node pos="r" depth="1" NCoef="0" IVar="5" Cut="2.0372983932495117e+01" cType="1" res="-9.9000000000000000e+01" rms="0.0000000000000000e+00" purity="3.5079833865165710e-01" nType="0">
          <Node pos="l" depth="2" NCoef="0" IVar="1" Cut="8.9507484436035156e-01" cType="1" res="-9.9000000000000000e+01" rms="0.0000000000000000e+00" purity="6.1493468284606934e-01" nType="0">
            <Node pos="l" depth="3" NCoef="0" IVar="-1" Cut="0.0000000000000000e+00" cType="1" res="-9.9000000000000000e+01" rms="0.0000000000000000e+00" purity="8.5524386167526245e-01" nType="1"/>
            <Node pos="r" depth="3" NCoef="0" IVar="-1" Cut="0.0000000000000000e+00" cType="1" res="-9.9000000000000000e+01" rms="0.0000000000000000e+00" purity="3.7432808429002762e-02" nType="-1"/>
          </Node>
          <Node pos="r" depth="2" NCoef="0" IVar="1" Cut="6.6217964887619019e-01" cType="0" res="-9.9000000000000000e+01" rms="0.0000000000000000e+00" purity="1.5899305045604706e-01" nType="0">
            <Node pos="l" depth="3" NCoef="0" IVar="-1" Cut="0.0000000000000000e+00" cType="1" res="-9.9000000000000000e+01" rms="0.0000000000000000e+00" purity="7.3766726255416870e-01" nType="1"/>
            <Node pos="r" depth="3" NCoef="0" IVar="-1" Cut="0.0000000000000000e+00" cType="1" res="-9.9000000000000000e+01" rms="0.0000000000000000e+00" purity="6.9743044674396515e-02" nType="-1"/>
          </Node>
        </Node>
      </Node>
    </BinaryTree>
    <BinaryTree type="DecisionTree" boostWeight="9.7740775543609781e-01" itree="28">
      <Node pos="s" depth="0" NCoef="0" IVar="4" Cut="1.3628677129745483e+00" cType="1" res="-9.9000000000000000e+01" rms="0.0000000000000000e+00" purity="5.0977259874343872e-01" nType="0">
        <Node pos="l" depth="1" NCoef="0" IVar="5" Cut="2.1866359710693359e+01" cType="1" res="-9.9000000000000000e+01" rms="0.0000000000000000e+00" purity="6.4137858152389526e-01" nType="0">
          <Node pos="l" depth="2" NCoef="0" IVar="-1" Cut="1.5705814361572266e+00" cType="0" res="-9.9000000000000000e+01" rms="0.0000000000000000e+00" purity="8.2481324672698975e-01" nType="1"/>
          <Node pos="r" depth="2" NCoef="0" IVar="5" Cut="2.3623771667480469e+01" cType="0" res="-9.9000000000000000e+01" rms="0.0000000000000000e+00" purity="3.9037898182868958e-01" nType="0">
            <Node pos="l" depth="3" NCoef="0" IVar="-1" Cut="0.0000000000000000e+00" cType="1" res="-9.9000000000000000e+01" rms="0.0000000000000000e+00" purity="8.5942971706390381e-01" nType="1"/>
            <Node pos="r" depth="3" NCoef="0" IVar="-1" Cut="0.0000000000000000e+00" cType="1" res="-9.9000000000000000e+01" rms="0.0000000000000000e+00" purity="7.9492509365081787e-02" nType="-1"/>
          </Node>
        </Node>
        <Node pos="r" depth="1" NCoef="0" IVar="0" Cut="2.3620338439941406e+00" cType="0" res="-9.9000000000000000e+01" rms="0.0000000000000000e+00" purity="1.7440356314182281e-01" nType="0">
          <Node pos="l" depth="2" NCoef="0" IVar="0" Cut="1.0182945251464844e+01" cType="1" res="-9.9000000000000000e+01" rms="0.0000000000000000e+00" purity="4.8439100384712219e-01" nType="0">
            <Node pos="l" depth="3" NCoef="0" IVar="-1" Cut="0.0000000000000000e+00" cType="1" res="-9.9000000000000000e+01" rms="0.0000000000000000e+00" purity="1.0000000000000000e+00" nType="1"/>
            <Node pos="r" depth="3" NCoef="0" IVar="-1" Cut="0.0000000000000000e+00" cType="1" res="-9.9000000000000000e+01" rms="0.0000000000000000e+00" purity="9.9319860339164734e-02" nType="-1"/>
          </Node>
          <Node pos="r" depth="2" NCoef="0" IVar="-1" Cut="6.1335355043411255e-01" cType="0" res="-9.9000000000000000e+01" rms="0.0000000000000000e+00" purity="7.4797660112380981e-02" nType="-1"/>
        </Node>
      </Node>
    </BinaryTree>
    <BinaryTree type="DecisionTree" boostWeight="1.0398107161028081e+00" itree="29">
      <Node pos="s" depth="0" NCoef="0" IVar="0" Cut="2.4531600475311279e+00" cType="0" res="-9.9000000000000000e+01" rms="0.0000000000000000e+00" purity="4.6189391613006592e-01" nType="0">
        <Node pos="l" depth="1" NCoef="0" IVar="-1" Cut="2.1711065292358398e+01" cType="1" res="-9.9000000000000000e+01" rms="0.0000000000000000e+00" purity="9.0270423889160156e-01" nType="1"/>
        <Node pos="r" depth="1" NCoef="0" IVar="1" Cut="5.4175925254821777e-01" cType="0" res="-9.9000000000000000e+01" rms="0.0000000000000000e+00" purity="2.7274918556213379e-01" nType="0">
          <Node pos="l" depth="2" NCoef="0" IVar="4" Cut="1.5961542129516602e+00" cType="0" res="-9.9000000000000000e+01" rms="0.0000000000000000e+00" purity="6.3413071632385254e-01" nType="0">
            <Node pos="l" depth="3" NCoef="0" IVar="-1" Cut="0.0000000000000000e+00" cType="1" res="-9.9000000000000000e+01" rms="0.0000000000000000e+00" purity="9.9268424510955811e-01" nType="1"/>
            <Node pos="r" depth="3" NCoef="0" IVar="-1" Cut="0.0000000000000000e+00" cType="1" res="-9.9000000000000000e+01" rms="0.0000000000000000e+00" purity="3.5183864831924438e-01" nType="-1"/>
          </Node>
          <Node pos="r" depth="2" NCoef="0" IVar="2" Cut="9.1593112945556641e+00" cType="0" res="-9.9000000000000000e+01" rms="0.0000000000000000e+00" purity="7.6266974210739136e-02" nType="0">
            <Node pos="l" depth="3" NCoef="0" IVar="-1" Cut="0.0000000000000000e+00" cType="1" res="-9.9000000000000000e+01" rms="0.0000000000000000e+00" purity="5.1490139961242676e-01" nType="1"/>
            <Node pos="r" depth="3" NCoef="0" IVar="-1" Cut="0.0000000000000000e+00" cType="1" res="-9.9000000000000000e+01" rms="0.0000000000000000e+00" purity="0.0000000000000000e+00" nType="-1"/>
          </Node>
        </Node>
      </Node>
    </BinaryTree>
    <BinaryTree type="DecisionTree" boostWeight="6.1783623845010116e-01" itree="30">
      <Node pos="s" depth="0" NCoef="0" IVar="3" Cut="9.9727272987365723e-01" cType="0" res="-9.9000000000000000e+01" rms="0.0000000000000000e+00" purity="4.2480468750000000e-01" nType="0">
        <Node pos="l" depth="1" NCoef="0" IVar="4" Cut="2.2327761650085449e+00" cType="0" res="-9.9000000000000000e+01" rms="0.0000000000000000e+00" purity="4.8721450567245483e-01" nType="0">
          <Node pos="l" depth="2" NCoef="0" IVar="-1" Cut="0.0000000000000000e+00" cType="1" res="-9.9000000000000000e+01" rms="0.0000000000000000e+00" purity="1.0000000000000000e+00" nType="1"/>
          <Node pos="r" depth="2" NCoef="0" IVar="4" Cut="9.4101434946060181e-01" cType="1" res="-9.9000000000000000e+01" rms="0.0000000000000000e+00" purity="4.2424890398979187e-01" nType="0">
            <Node pos="l" depth="3" NCoef="0" IVar="-1" Cut="0.0000000000000000e+00" cType="1" res="-9.9000000000000000e+01" rms="0.0000000000000000e+00" purity="6.7372012138366699e-01" nType="1"/>
            <Node pos="r" depth="3" NCoef="0" IVar="-1" Cut="0.0000000000000000e+00" cType="1" res="-9.9000000000000000e+01" rms="0.0000000000000000e+00" purity="2.5153800845146179e-01" nType="-1"/>
          </Node>
        </Node>
        <Node pos="r" depth="1" NCoef="0" IVar="-1" Cut="1.4437967538833618e+00" cType="0" res="-9.9000000000000000e+01" rms="0.0000000000000000e+00" purity="8.1975013017654419e-02" nType="-1"/>
      </Node>
    </BinaryTree>
    <BinaryTree type="DecisionTree" boostWeight="9.4695519875698242e-01" itree="31">
      <Node pos="s" depth="0" NCoef="0" IVar="0" Cut="1.5827356576919556e+00" cType="0" res="-9.9000000000000000e+01" rms="0.0000000000000000e+00" purity="5.3718936443328857e-01" nType="0">
        <Node pos="l" depth="1" NCoef="0" IVar="1" Cut="5.7025734335184097e-02" cType="0" res="-9.9000000000000000e+01" rms="0.0000000000000000e+00" purity="7.8534424304962158e-01" nType="0">
          <Node pos="l" depth="2" NCoef="0" IVar="-1" Cut="1.6768158674240112e+00" cType="1" res="-9.9000000000000000e+01" rms="0.0000000000000000e+00" purity="8.8935565948486328e-01" nType="1"/>
          <Node pos="r" depth="2" NCoef="0" IVar="1" Cut="3.8704305887222290e-02" cType="1" res="-9.9000000000000000e+01" rms="0.0000000000000000e+00" purity="3.7421470880508423e-01" nType="0">
            <Node pos="l" depth="3" NCoef="0" IVar="-1" Cut="0.0000000000000000e+00" cType="1" res="-9.9000000000000000e+01" rms="0.0000000000000000e+00" purity="6.2892651557922363e-01" nType="1"/>
            <Node pos="r" depth="3" NCoef="0" IVar="-1" Cut="0.0000000000000000e+00" cType="1" res="-9.9000000000000000e+01" rms="0.0000000000000000e+00" purity="1.9051237404346466e-01" nType="-1"/>
          </Node>
        </Node>
        <Node pos="r" depth="1" NCoef="0" IVar="2" Cut="6.0964326858520508e+00" cType="0" res="-9.9000000000000000e+01" rms="0.0000000000000000e+00" purity="2.5561732053756714e-01" nType="0">
          <Node pos="l" depth="2" NCoef="0" IVar="0" Cut="1.3473672866821289e+00" cType="0" res="-9.9000000000000000e+01" rms="0.0000000000000000e+00" purity="5.4652130603790283e-01" nType="0">
            <Node pos="l" depth="3" NCoef="0" IVar="-1" Cut="0.0000000000000000e+00" cType="1" res="-9.9000000000000000e+01" rms="0.0000000000000000e+00" purity="1.0000000000000000e+00" nType="1"/>
            <Node pos="r" depth="3" NCoef="0" IVar="-1" Cut="0.0000000000000000e+00" cType="1" res="-9.9000000000000000e+01" rms="0.0000000000000000e+00" purity="3.5754078626632690e-01" nType="-1"/>
          </Node>
          <Node pos="r" depth="2" NCoef="0" IVar="-1" Cut="0.0000000000000000e+00" cType="1" res="-9.9000000000000000e+01" rms="0.0000000000000000e+00" purity="0.0000000000000000e+00" nType="-1"/>
        </Node>
      </Node>
    </BinaryTree>
    <BinaryTree type="DecisionTree" boostWeight="9.3677003067159847e-01" itree="32">
      <Node pos="s" depth="0" NCoef="0" IVar="2" Cut="1.6569654464721680e+01" cType="0" res="-9.9000000000000000e+01" rms="0.0000000000000000e+00" purity="5.4510998725891113e-01" nType="0">
        <Node pos="l" depth="1" NCoef="0" IVar="-1" Cut="2.2052135467529297e+01" cType="1" res="-9.9000000000000000e+01" rms="0.0000000000000000e+00" purity="9.2468744516372681e-01" nType="1"/>
        <Node pos="r" depth="1" NCoef="0" IVar="4" Cut="1.3516387343406677e-01" cType="1" res="-9.9000000000000000e+01" rms="0.0000000000000000e+00" purity="3.9138475060462952e-01" nType="0">
          <Node pos="l" depth="2" NCoef="0" IVar="-1" Cut="0.0000000000000000e+00" cType="1" res="-9.9000000000000000e+01" rms="0.0000000000000000e+00" purity="9.1350954771041870e-01" nType="1"/>
          <Node pos="r" depth="2" NCoef="0" IVar="0" Cut="2.8738415241241455e+00" cType="0" res="-9.9000000000000000e+01" rms="0.0000000000000000e+00" purity="2.8921154141426086e-01" nType="0">
            <Node pos="l" depth="3" NCoef="0" IVar="-1" Cut="0.0000000000000000e+00" cType="1" res="-9.9000000000000000e+01" rms="0.0000000000000000e+00" purity="7.4570000171661377e-01" nType="1"/>
            <Node pos="r" depth="3" NCoef="0" IVar="-1" Cut="0.0000000000000000e+00" cType="1" res="-9.9000000000000000e+01" rms="0.0000000000000000e+00" purity="1.4341770112514496e-01" nType="-1"/>
          </Node>
        </Node>
      </Node>
    </BinaryTree>
    <BinaryTree type="DecisionTree" boostWeight="1.0899652525799808e+00" itree="33">
      <Node pos="s" depth="0" NCoef="0" IVar="1" Cut="4.3276476860046387e-01" cType="0" res="-9.9000000000000000e+01" rms="0.0000000000000000e+00" purity="6.0168552398681641e-01" nType="0">
        <Node pos="l" depth="1" NCoef="0" IVar="3" Cut="9.9942606687545776e-01" cType="0" res="-9.9000000000000000e+01" rms="0.0000000000000000e+00" purity="8.4708780050277710e-01" nType="0">
          <Node pos="l" depth="2" NCoef="0" IVar="-1" Cut="5.0105845928192139e-01" cType="0" res="-9.9000000000000000e+01" rms="0.0000000000000000e+00" purity="9.3698841333389282e-01" nType="1"/>
          <Node pos="r" depth="2" NCoef="0" IVar="4" Cut="1.4583497047424316e+00" cType="1" res="-9.9000000000000000e+01" rms="0.0000000000000000e+00" purity="5.5686485767364502e-01" nType="0">
            <Node pos="l" depth="3" NCoef="0" IVar="-1" Cut="0.0000000000000000e+00" cType="1" res="-9.9000000000000000e+01" rms="0.0000000000000000e+00" purity="9.5866388082504272e-01" nType="1"/>
            <Node pos="r" depth="3" NCoef="0" IVar="-1" Cut="0.0000000000000000e+00" cType="1" res="-9.9000000000000000e+01" rms="0.0000000000000000e+00" purity="0.0000000000000000e+00" nType="-1"/>
          </Node>
        </Node>
        <Node pos="r" depth="1" NCoef="0" IVar="2" Cut="7.2366099357604980e+00" cType="0" res="-9.9000000000000000e+01" rms="0.0000000000000000e+00" purity="3.5710585117340088e-01" nType="0">
          <Node pos="l" depth="2" NCoef="0" IVar="1" Cut="1.6652134060859680e-01" cType="1" res="-9.9000000000000000e+01" rms="0.0000000000000000e+00" purity="6.9118726253509521e-01" nType="0">
            <Node pos="l" depth="3" NCoef="0" IVar="-1" Cut="0.0000000000000000e+00" cType="1" res="-9.9000000000000000e+01" rms="0.0000000000000000e+00" purity="9.2267262935638428e-01" nType="1"/>
            <Node pos="r" depth="3" NCoef="0" IVar="-1" Cut="0.0000000000000000e+00" cType="1" res="-9.9000000000000000e+01" rms="0.0000000000000000e+00" purity="4.3298521637916565e-01" nType="-1"/>
          </Node>
          <Node pos="r" depth="2" NCoef="0" IVar="-1" Cut="1.2910970449447632e+00" cType="0" res="-9.9000000000000000e+01" rms="0.0000000000000000e+00" purity="6.5020248293876648e-02" nType="-1"/>
        </Node>
      </Node>
    </BinaryTree>
    <BinaryTree type="DecisionTree" boostWeight="5.4285593005691835e-01" itree="34">
      <Node pos="s" depth="0" NCoef="0" IVar="1" Cut="5.8421205729246140e-02" cType="0" res="-9.9000000000000000e+01" rms="0.0000000000000000e+00" purity="4.7960019111633301e-01" nType="0">
        <Node pos="l" depth="1" NCoef="0" IVar="5" Cut="2.3924221038818359e+01" cType="0" res="-9.9000000000000000e+01" rms="0.0000000000000000e+00" purity="5.7188242673873901e-01" nType="0">
          <Node pos="l" depth="2" NCoef="0" IVar="-1" Cut="4.8357036709785461e-01" cType="0" res="-9.9000000000000000e+01" rms="0.0000000000000000e+00" purity="8.2397818565368652e-01" nType="1"/>
          <Node pos="r" depth="2" NCoef="0" IVar="5" Cut="1.9918479919433594e+01" cType="1" res="-9.9000000000000000e+01" rms="0.0000000000000000e+00" purity="4.7760257124900818e-01" nType="0">
            <Node pos="l" depth="3" NCoef="0" IVar="-1" Cut="0.0000000000000000e+00" cType="1" res="-9.9000000000000000e+01" rms="0.0000000000000000e+00" purity="5.8500045537948608e-01" nType="1"/>
            <Node pos="r" depth="3" NCoef="0" IVar="-1" Cut="0.0000000000000000e+00" cType="1" res="-9.9000000000000000e+01" rms="0.0000000000000000e+00" purity="2.6973935961723328e-01" nType="-1"/>
          </Node>
        </Node>
        <Node pos="r" depth="1" NCoef="0" IVar="0" Cut="2.8914892673492432e+00" cType="0" res="-9.9000000000000000e+01" rms="0.0000000000000000e+00" purity="1.7684964835643768e-01" nType="0">
          <Node pos="l" depth="2" NCoef="0" IVar="-1" Cut="0.0000000000000000e+00" cType="1" res="-9.9000000000000000e+01" rms="0.0000000000000000e+00" purity="1.0000000000000000e+00" nType="1"/>
          <Node pos="r" depth="2" NCoef="0" IVar="-1" Cut="2.0303825378417969e+01" cType="1" res="-9.9000000000000000e+01" rms="0.0000000000000000e+00" purity="5.7943854480981827e-02" nType="-1"/>
        </Node>
      </Node>
    </BinaryTree>
    <BinaryTree type="DecisionTree" boostWeight="1.2836554274925167e+00" itree="35">
      <Node pos="s" depth="0" NCoef="0" IVar="0" Cut="2.5143582820892334e+00" cType="0" res="-9.9000000000000000e+01" rms="0.0000000000000000e+00" purity="5.7126700878143311e-01" nType="0">
        <Node pos="l" depth="1" NCoef="0" IVar="2" Cut="2.8789552688598633e+01" cType="1" res="-9.9000000000000000e+01" rms="0.0000000000000000e+00" purity="9.4190829992294312e-01" nType="0">
          <Node pos="l" depth="2" NCoef="0" IVar="-1" Cut="0.0000000000000000e+00" cType="1" res="-9.9000000000000000e+01" rms="0.0000000000000000e+00" purity="1.0000000000000000e+00" nType="1"/>
          <Node pos="r" depth="2" NCoef="0" IVar="2" Cut="3.6619361877441406e+01" cType="0" res="-9.9000000000000000e+01" rms="0.0000000000000000e+00" purity="7.3603957891464233e-01" nType="0">
            <Node pos="l" depth="3" NCoef="0" IVar="-1" Cut="0.0000000000000000e+00" cType="1" res="-9.9000000000000000e+01" rms="0.0000000000000000e+00" purity="1.0000000000000000e+00" nType="1"/>
            <Node pos="r" depth="3" NCoef="0" IVar="-1" Cut="0.0000000000000000e+00" cType="1" res="-9.9000000000000000e+01" rms="0.0000000000000000e+00" purity="2.6487669348716736e-01" nType="-1"/>
          </Node>
        </Node>
        <Node pos="r" depth="1" NCoef="0" IVar="1" Cut="1.0372699797153473e-01" cType="0" res="-9.9000000000000000e+01" rms="0.0000000000000000e+00" purity="2.7670514583587646e-01" nType="0">
          <Node pos="l" depth="2" NCoef="0" IVar="2" Cut="1.0821221351623535e+01" cType="0" res="-9.9000000000000000e+01" rms="0.0000000000000000e+00" purity="4.2256066203117371e-01" nType="0">
            <Node pos="l" depth="3" NCoef="0" IVar="-1" Cut="0.0000000000000000e+00" cType="1" res="-9.9000000000000000e+01" rms="0.0000000000000000e+00" purity="8.0761957168579102e-01" nType="1"/>
            <Node pos="r" depth="3" NCoef="0" IVar="-1" Cut="0.0000000000000000e+00" cType="1" res="-9.9000000000000000e+01" rms="0.0000000000000000e+00" purity="1.5430119633674622e-01" nType="-1"/>
          </Node>
          <Node pos="r" depth="2" NCoef="0" IVar="-1" Cut="0.0000000000000000e+00" cType="1" res="-9.9000000000000000e+01" rms="0.0000000000000000e+00" purity="0.0000000000000000e+00" nType="-1"/>
        </Node>
      </Node>
    </BinaryTree>
    <BinaryTree type="DecisionTree" boostWeight="5.9795150827371268e-01" itree="36">
      <Node pos="s" depth="0" NCoef="0" IVar="0" Cut="5.7714190483093262e+00" cType="0" res="-9.9000000000000000e+01" rms="0.0000000000000000e+00" purity="6.3959282636642456e-01" nType="0">
        <Node pos="l" depth="1" NCoef="0" IVar="-1" Cut="0.0000000000000000e+00" cType="1" res="-9.9000000000000000e+01" rms="0.0000000000000000e+00" purity="1.0000000000000000e+00" nType="1"/>
        <Node pos="r" depth="1" NCoef="0" IVar="1" Cut="1.5064610540866852e-01" cType="0" res="-9.9000000000000000e+01" rms="0.0000000000000000e+00" purity="5.6826257705688477e-01" nType="0">
          <Node pos="l" depth="2" NCoef="0" IVar="3" Cut="9.9847042560577393e-01" cType="0" res="-9.9000000000000000e+01" rms="0.0000000000000000e+00" purity="6.5125775337219238e-01" nType="0">
            <Node pos="l" depth="3" NCoef="0" IVar="-1" Cut="0.0000000000000000e+00" cType="1" res="-9.9000000000000000e+01" rms="0.0000000000000000e+00" purity="7.1181386709213257e-01" nType="1"/>
            <Node pos="r" depth="3" NCoef="0" IVar="-1" Cut="0.0000000000000000e+00" cType="1" res="-9.9000000000000000e+01" rms="0.0000000000000000e+00" purity="3.6868026852607727e-01" nType="-1"/>
          </Node>
          <Node pos="r" depth="2" NCoef="0" IVar="-1" Cut="1.6061874628067017e+00" cType="0" res="-9.9000000000000000e+01" rms="0.0000000000000000e+00" purity="1.5854810178279877e-01" nType="-1"/>
        </Node>
      </Node>
    </BinaryTree>
    <BinaryTree type="DecisionTree" boostWeight="3.6039786678453334e-01" itree="37">
      <Node pos="s" depth="0" NCoef="0" IVar="5" Cut="1.5044541358947754e+01" cType="1" res="-9.9000000000000000e+01" rms="0.0000000000000000e+00" purity="4.8509991168975830e-01" nType="0">
        <Node pos="l" depth="1" NCoef="0" IVar="-1" Cut="0.0000000000000000e+00" cType="1" res="-9.9000000000000000e+01" rms="0.0000000000000000e+00" purity="1.0000000000000000e+00" nType="1"/>
        <Node pos="r" depth="1" NCoef="0" IVar="1" Cut="8.0192250013351440e-01" cType="0" res="-9.9000000000000000e+01" rms="0.0000000000000000e+00" purity="4.2343887686729431e-01" nType="0">
          <Node pos="l" depth="2" NCoef="0" IVar="-1" Cut="0.0000000000000000e+00" cType="1" res="-9.9000000000000000e+01" rms="0.0000000000000000e+00" purity="1.0000000000000000e+00" nType="1"/>
          <Node pos="r" depth="2" NCoef="0" IVar="-1" Cut="1.3628450632095337e+00" cType="0" res="-9.9000000000000000e+01" rms="0.0000000000000000e+00" purity="3.8856530189514160e-01" nType="-1"/>
        </Node>
      </Node>
    </BinaryTree>
    <BinaryTree type="DecisionTree" boostWeight="9.2264154376389584e-01" itree="38">
      <Node pos="s" depth="0" NCoef="0" IVar="4" Cut="1.0022112131118774e+00" cType="1" res="-9.9000000000000000e+01" rms="0.0000000000000000e+00" purity="5.2186363935470581e-01" nType="0">
        <Node pos="l" depth="1" NCoef="0" IVar="3" Cut="9.9727225303649902e-01" cType="0" res="-9.9000000000000000e+01" rms="0.0000000000000000e+00" purity="7.1521210670471191e-01" nType="0">
          <Node pos="l" depth="2" NCoef="0" IVar="-1" Cut="1.4691840410232544e+00" cType="0" res="-9.9000000000000000e+01" rms="0.0000000000000000e+00" purity="8.4051191806793213e-01" nType="1"/>
          <Node pos="r" depth="2" NCoef="0" IVar="5" Cut="1.9914348602294922e+01" cType="1" res="-9.9000000000000000e+01" rms="0.0000000000000000e+00" purity="1.7809444665908813e-01" nType="0">
            <Node pos="l" depth="3" NCoef="0" IVar="-1" Cut="0.0000000000000000e+00" cType="1" res="-9.9000000000000000e+01" rms="0.0000000000000000e+00" purity="7.7999609708786011e-01" nType="1"/>
            <Node pos="r" depth="3" NCoef="0" IVar="-1" Cut="0.0000000000000000e+00" cType="1" res="-9.9000000000000000e+01" rms="0.0000000000000000e+00" purity="0.0000000000000000e+00" nType="-1"/>
          </Node>
        </Node>
        <Node pos="r" depth="1" NCoef="0" IVar="4" Cut="1.8891619443893433e+00" cType="0" res="-9.9000000000000000e+01" rms="0.0000000000000000e+00" purity="2.5971317291259766e-01" nType="0">
          <Node pos="l" depth="2" NCoef="0" IVar="0" Cut="1.5038723945617676e+00" cType="0" res="-9.9000000000000000e+01" rms="0.0000000000000000e+00" purity="6.3407140970230103e-01" nType="0">
            <Node pos="l" depth="3" NCoef="0" IVar="-1" Cut="0.0000000000000000e+00" cType="1" res="-9.9000000000000000e+01" rms="0.0000000000000000e+00" purity="1.0000000000000000e+00" nType="1"/>
            <Node pos="r" depth="3" NCoef="0" IVar="-1" Cut="0.0000000000000000e+00" cType="1" res="-9.9000000000000000e+01" rms="0.0000000000000000e+00" purity="0.0000000000000000e+00" nType="-1"/>
          </Node>
          <Node pos="r" depth="2" NCoef="0" IVar="-1" Cut="9.9934875965118408e-01" cType="0" res="-9.9000000000000000e+01" rms="0.0000000000000000e+00" purity="1.6638419032096863e-01" nType="-1"/>
        </Node>
      </Node>
    </BinaryTree>
    <BinaryTree type="DecisionTree" boostWeight="1.1120094357918702e+00" itree="39">
      <Node pos="s" depth="0" NCoef="0" IVar="0" Cut="2.4531600475311279e+00" cType="0" res="-9.9000000000000000e+01" rms="0.0000000000000000e+00" purity="5.0518262386322021e-01" nType="0">
        <Node pos="l" depth="1" NCoef="0" IVar="0" Cut="1.1451798439025879e+01" cType="1" res="-9.9000000000000000e+01" rms="0.0000000000000000e+00" purity="8.2739061117172241e-01" nType="0">
          <Node pos="l" depth="2" NCoef="0" IVar="-1" Cut="1.7369096755981445e+01" cType="0" res="-9.9000000000000000e+01" rms="0.0000000000000000e+00" purity="9.7035872936248779e-01" nType="1"/>
          <Node pos="r" depth="2" NCoef="0" IVar="5" Cut="1.1084138870239258e+01" cType="1" res="-9.9000000000000000e+01" rms="0.0000000000000000e+00" purity="3.2774913311004639e-01" nType="0">
            <Node pos="l" depth="3" NCoef="0" IVar="-1" Cut="0.0000000000000000e+00" cType="1" res="-9.9000000000000000e+01" rms="0.0000000000000000e+00" purity="1.0000000000000000e+00" nType="1"/>
            <Node pos="r" depth="3" NCoef="0" IVar="-1" Cut="0.0000000000000000e+00" cType="1" res="-9.9000000000000000e+01" rms="0.0000000000000000e+00" purity="5.3675737231969833e-02" nType="-1"/>
          </Node>
        </Node>
        <Node pos="r" depth="1" NCoef="0" IVar="1" Cut="6.6479271650314331e-01" cType="0" res="-9.9000000000000000e+01" rms="0.0000000000000000e+00" purity="3.2937848567962646e-01" nType="0">
          <Node pos="l" depth="2" NCoef="0" IVar="5" Cut="2.3539876937866211e+01" cType="1" res="-9.9000000000000000e+01" rms="0.0000000000000000e+00" purity="7.7169692516326904e-01" nType="0">
            <Node pos="l" depth="3" NCoef="0" IVar="-1" Cut="0.0000000000000000e+00" cType="1" res="-9.9000000000000000e+01" rms="0.0000000000000000e+00" purity="9.8763871192932129e-01" nType="1"/>
            <Node pos="r" depth="3" NCoef="0" IVar="-1" Cut="0.0000000000000000e+00" cType="1" res="-9.9000000000000000e+01" rms="0.0000000000000000e+00" purity="4.8040276765823364e-01" nType="-1"/>
          </Node>
          <Node pos="r" depth="2" NCoef="0" IVar="0" Cut="1.9202482700347900e+00" cType="0" res="-9.9000000000000000e+01" rms="0.0000000000000000e+00" purity="1.6010670363903046e-01" nType="0">
            <Node pos="l" depth="3" NCoef="0" IVar="-1" Cut="0.0000000000000000e+00" cType="1" res="-9.9000000000000000e+01" rms="0.0000000000000000e+00" purity="6.9743460416793823e-01" nType="1"/>
            <Node pos="r" depth="3" NCoef="0" IVar="-1" Cut="0.0000000000000000e+00" cType="1" res="-9.9000000000000000e+01" rms="0.0000000000000000e+00" purity="7.0821054279804230e-02" nType="-1"/>
          </Node>
        </Node>
      </Node>
    </BinaryTree>
    <BinaryTree type="DecisionTree" boostWeight="6.5204796665183895e-01" itree="40">
      <Node pos="s" depth="0" NCoef="0" IVar="1" Cut="6.6479271650314331e-01" cType="0" res="-9.9000000000000000e+01" rms="0.0000000000000000e+00" purity="4.9877524375915527e-01" nType="0">
        <Node pos="l" depth="1" NCoef="0" IVar="-1" Cut="7.9012256860733032e-01" cType="1" res="-9.9000000000000000e+01" rms="0.0000000000000000e+00" purity="8.5328567028045654e-01" nType="1"/>
        <Node pos="r" depth="1" NCoef="0" IVar="0" Cut="2.8633799552917480e+00" cType="0" res="-9.9000000000000000e+01" rms="0.0000000000000000e+00" purity="3.7750276923179626e-01" nType="0">
          <Node pos="l" depth="2" NCoef="0" IVar="5" Cut="1.9309190750122070e+01" cType="0" res="-9.9000000000000000e+01" rms="0.0000000000000000e+00" purity="6.7623388767242432e-01" nType="0">
            <Node pos="l" depth="3" NCoef="0" IVar="-1" Cut="0.0000000000000000e+00" cType="1" res="-9.9000000000000000e+01" rms="0.0000000000000000e+00" purity="1.0000000000000000e+00" nType="1"/>
            <Node pos="r" depth="3" NCoef="0" IVar="-1" Cut="0.0000000000000000e+00" cType="1" res="-9.9000000000000000e+01" rms="0.0000000000000000e+00" purity="4.7457993030548096e-01" nType="-1"/>
          </Node>
          <Node pos="r" depth="2" NCoef="0" IVar="-1" Cut="2.0217710494995117e+01" cType="1" res="-9.9000000000000000e+01" rms="0.0000000000000000e+00" purity="2.0365311205387115e-01" nType="-1"/>
        </Node>
      </Node>
    </BinaryTree>
    <BinaryTree type="DecisionTree" boostWeight="1.3128461214611220e+00" itree="41">
      <Node pos="s" depth="0" NCoef="0" IVar="2" Cut="1.0614447593688965e+01" cType="0" res="-9.9000000000000000e+01" rms="0.0000000000000000e+00" purity="5.8241587877273560e-01" nType="0">
        <Node pos="l" depth="1" NCoef="0" IVar="1" Cut="1.0347837954759598e-01" cType="0" res="-9.9000000000000000e+01" rms="0.0000000000000000e+00" purity="8.8079088926315308e-01" nType="0">
          <Node pos="l" depth="2" NCoef="0" IVar="-1" Cut="1.6772736310958862e+00" cType="1" res="-9.9000000000000000e+01" rms="0.0000000000000000e+00" purity="9.9497544765472412e-01" nType="1"/>
          <Node pos="r" depth="2" NCoef="0" IVar="-1" Cut="0.0000000000000000e+00" cType="1" res="-9.9000000000000000e+01" rms="0.0000000000000000e+00" purity="4.6370112895965576e-01" nType="-1"/>
        </Node>
        <Node pos="r" depth="1" NCoef="0" IVar="2" Cut="7.4982571601867676e+00" cType="0" res="-9.9000000000000000e+01" rms="0.0000000000000000e+00" purity="3.9952543377876282e-01" nType="0">
          <Node pos="l" depth="2" NCoef="0" IVar="1" Cut="1.1612653732299805e-01" cType="0" res="-9.9000000000000000e+01" rms="0.0000000000000000e+00" purity="7.7730298042297363e-01" nType="0">
            <Node pos="l" depth="3" NCoef="0" IVar="-1" Cut="0.0000000000000000e+00" cType="1" res="-9.9000000000000000e+01" rms="0.0000000000000000e+00" purity="1.0000000000000000e+00" nType="1"/>
            <Node pos="r" depth="3" NCoef="0" IVar="-1" Cut="0.0000000000000000e+00" cType="1" res="-9.9000000000000000e+01" rms="0.0000000000000000e+00" purity="0.0000000000000000e+00" nType="-1"/>
          </Node>
          <Node pos="r" depth="2" NCoef="0" IVar="0" Cut="2.7013041973114014e+00" cType="0" res="-9.9000000000000000e+01" rms="0.0000000000000000e+00" purity="2.2714507579803467e-01" nType="0">
            <Node pos="l" depth="3" NCoef="0" IVar="-1" Cut="0.0000000000000000e+00" cType="1" res="-9.9000000000000000e+01" rms="0.0000000000000000e+00" purity="8.1817865371704102e-01" nType="1"/>
            <Node pos="r" depth="3" NCoef="0" IVar="-1" Cut="0.0000000000000000e+00" cType="1" res="-9.9000000000000000e+01" rms="0.0000000000000000e+00" purity="2.6854176074266434e-02" nType="-1"/>
          </Node>
        </Node>
      </Node>
    </BinaryTree>
    <BinaryTree type="DecisionTree" boostWeight="1.2021863098442658e+00" itree="42">
      <Node pos="s" depth="0" NCoef="0" IVar="2" Cut="1.1928457260131836e+01" cType="0" res="-9.9000000000000000e+01" rms="0.0000000000000000e+00" purity="6.7576497793197632e-01" nType="0">
        <Node pos="l" depth="1" NCoef="0" IVar="-1" Cut="1.6772429943084717e+00" cType="0" res="-9.9000000000000000e+01" rms="0.0000000000000000e+00" purity="9.5236057043075562e-01" nType="1"/>
        <Node pos="r" depth="1" NCoef="0" IVar="2" Cut="6.2905383110046387e+00" cType="0" res="-9.9000000000000000e+01" rms="0.0000000000000000e+00" purity="4.1556066274642944e-01" nType="0">
          <Node pos="l" depth="2" NCoef="0" IVar="-1" Cut="2.0469760894775391e+01" cType="1" res="-9.9000000000000000e+01" rms="0.0000000000000000e+00" purity="8.7885791063308716e-01" nType="1"/>
          <Node pos="r" depth="2" NCoef="0" IVar="4" Cut="1.9382488727569580e+00" cType="0" res="-9.9000000000000000e+01" rms="0.0000000000000000e+00" purity="2.0312137901782990e-01" nType="0">
            <Node pos="l" depth="3" NCoef="0" IVar="-1" Cut="0.0000000000000000e+00" cType="1" res="-9.9000000000000000e+01" rms="0.0000000000000000e+00" purity="6.9778245687484741e-01" nType="1"/>
            <Node pos="r" depth="3" NCoef="0" IVar="-1" Cut="0.0000000000000000e+00" cType="1" res="-9.9000000000000000e+01" rms="0.0000000000000000e+00" purity="5.8376047760248184e-02" nType="-1"/>
          </Node>
        </Node>
      </Node>
    </BinaryTree>
    <BinaryTree type="DecisionTree" boostWeight="8.5098836036328629e-01" itree="43">
      <Node pos="s" depth="0" NCoef="0" IVar="1" Cut="1.9756866991519928e-01" cType="0" res="-9.9000000000000000e+01" rms="0.0000000000000000e+00" purity="6.9491803646087646e-01" nType="0">
        <Node pos="l" depth="1" NCoef="0" IVar="4" Cut="1.8147253990173340e+00" cType="1" res="-9.9000000000000000e+01" rms="0.0000000000000000e+00" purity="8.1650507450103760e-01" nType="0">
          <Node pos="l" depth="2" NCoef="0" IVar="-1" Cut="1.0064426422119141e+01" cType="1" res="-9.9000000000000000e+01" rms="0.0000000000000000e+00" purity="8.5901886224746704e-01" nType="1"/>
          <Node pos="r" depth="2" NCoef="0" IVar="1" Cut="5.0861036777496338e-01" cType="0" res="-9.9000000000000000e+01" rms="0.0000000000000000e+00" purity="5.7347738742828369e-01" nType="0">
            <Node pos="l" depth="3" NCoef="0" IVar="-1" Cut="0.0000000000000000e+00" cType="1" res="-9.9000000000000000e+01" rms="0.0000000000000000e+00" purity="6.7828577756881714e-01" nType="1"/>
            <Node pos="r" depth="3" NCoef="0" IVar="-1" Cut="0.0000000000000000e+00" cType="1" res="-9.9000000000000000e+01" rms="0.0000000000000000e+00" purity="4.5788365602493286e-01" nType="-1"/>
          </Node>
        </Node>
        <Node pos="r" depth="1" NCoef="0" IVar="2" Cut="9.7249078750610352e+00" cType="0" res="-9.9000000000000000e+01" rms="0.0000000000000000e+00" purity="4.5867353677749634e-01" nType="0">
          <Node pos="l" depth="2" NCoef="0" IVar="-1" Cut="1.6142894744873047e+01" cType="0" res="-9.9000000000000000e+01" rms="0.0000000000000000e+00" purity="8.6437529325485229e-01" nType="1"/>
          <Node pos="r" depth="2" NCoef="0" IVar="-1" Cut="3.7946019321680069e-02" cType="1" res="-9.9000000000000000e+01" rms="0.0000000000000000e+00" purity="8.4211535751819611e-02" nType="-1"/>
        </Node>
      </Node>
    </BinaryTree>
    <BinaryTree type="DecisionTree" boostWeight="7.6794137740870350e-01" itree="44">
      <Node pos="s" depth="0" NCoef="0" IVar="0" Cut="2.4531600475311279e+00" cType="0" res="-9.9000000000000000e+01" rms="0.0000000000000000e+00" purity="4.9116125702857971e-01" nType="0">
        <Node pos="l" depth="1" NCoef="0" IVar="1" Cut="7.6228404045104980e-01" cType="1" res="-9.9000000000000000e+01" rms="0.0000000000000000e+00" purity="6.7237538099288940e-01" nType="0">
          <Node pos="l" depth="2" NCoef="0" IVar="-1" Cut="1.9212200164794922e+01" cType="1" res="-9.9000000000000000e+01" rms="0.0000000000000000e+00" purity="8.4489160776138306e-01" nType="1"/>
          <Node pos="r" depth="2" NCoef="0" IVar="-1" Cut="1.2277013778686523e+01" cType="0" res="-9.9000000000000000e+01" rms="0.0000000000000000e+00" purity="1.5622730553150177e-01" nType="-1"/>
        </Node>
        <Node pos="r" depth="1" NCoef="0" IVar="1" Cut="5.2520483732223511e-01" cType="0" res="-9.9000000000000000e+01" rms="0.0000000000000000e+00" purity="3.3666807413101196e-01" nType="0">
          <Node pos="l" depth="2" NCoef="0" IVar="3" Cut="9.9699866771697998e-01" cType="0" res="-9.9000000000000000e+01" rms="0.0000000000000000e+00" purity="6.0827767848968506e-01" nType="0">
            <Node pos="l" depth="3" NCoef="0" IVar="-1" Cut="0.0000000000000000e+00" cType="1" res="-9.9000000000000000e+01" rms="0.0000000000000000e+00" purity="7.1820896863937378e-01" nType="1"/>
            <Node pos="r" depth="3" NCoef="0" IVar="-1" Cut="0.0000000000000000e+00" cType="1" res="-9.9000000000000000e+01" rms="0.0000000000000000e+00" purity="0.0000000000000000e+00" nType="-1"/>
          </Node>
          <Node pos="r" depth="2" NCoef="0" IVar="-1" Cut="2.0266162872314453e+01" cType="1" res="-9.9000000000000000e+01" rms="0.0000000000000000e+00" purity="1.6916461288928986e-01" nType="-1"/>
        </Node>
      </Node>
    </BinaryTree>
    <BinaryTree type="DecisionTree" boostWeight="1.1876446693004461e+00" itree="45">
      <Node pos="s" depth="0" NCoef="0" IVar="0" Cut="1.6588978767395020e+00" cType="0" res="-9.9000000000000000e+01" rms="0.0000000000000000e+00" purity="6.3417321443557739e-01" nType="0">
        <Node pos="l" depth="1" NCoef="0" IVar="3" Cut="9.9913591146469116e-01" cType="0" res="-9.9000000000000000e+01" rms="0.0000000000000000e+00" purity="9.0523344278335571e-01" nType="0">
          <Node pos="l" depth="2" NCoef="0" IVar="-1" Cut="0.0000000000000000e+00" cType="1" res="-9.9000000000000000e+01" rms="0.0000000000000000e+00" purity="1.0000000000000000e+00" nType="1"/>
          <Node pos="r" depth="2" NCoef="0" IVar="1" Cut="3.4719279408454895e-01" cType="0" res="-9.9000000000000000e+01" rms="0.0000000000000000e+00" purity="6.6819214820861816e-01" nType="0">
            <Node pos="l" depth="3" NCoef="0" IVar="-1" Cut="0.0000000000000000e+00" cType="1" res="-9.9000000000000000e+01" rms="0.0000000000000000e+00" purity="1.0000000000000000e+00" nType="1"/>
            <Node pos="r" depth="3" NCoef="0" IVar="-1" Cut="0.0000000000000000e+00" cType="1" res="-9.9000000000000000e+01" rms="0.0000000000000000e+00" purity="1.9547501206398010e-01" nType="-1"/>
          </Node>
        </Node>
        <Node pos="r" depth="1" NCoef="0" IVar="0" Cut="1.0882893800735474e+00" cType="0" res="-9.9000000000000000e+01" rms="0.0000000000000000e+00" purity="3.7053757905960083e-01" nType="0">
          <Node pos="l" depth="2" NCoef="0" IVar="5" Cut="2.1296501159667969e+01" cType="1" res="-9.9000000000000000e+01" rms="0.0000000000000000e+00" purity="7.0685768127441406e-01" nType="0">
            <Node pos="l" depth="3" NCoef="0" IVar="-1" Cut="0.0000000000000000e+00" cType="1" res="-9.9000000000000000e+01" rms="0.0000000000000000e+00" purity="9.1296762228012085e-01" nType="1"/>
            <Node pos="r" depth="3" NCoef="0" IVar="-1" Cut="0.0000000000000000e+00" cType="1" res="-9.9000000000000000e+01" rms="0.0000000000000000e+00" purity="2.0849463343620300e-01" nType="-1"/>
          </Node>
          <Node pos="r" depth="2" NCoef="0" IVar="-1" Cut="5.0404596328735352e-01" cType="0" res="-9.9000000000000000e+01" rms="0.0000000000000000e+00" purity="1.5975452959537506e-01" nType="-1"/>
        </Node>
      </Node>
    </BinaryTree>
    <BinaryTree type="DecisionTree" boostWeight="5.8245728318872547e-01" itree="46">
      <Node pos="s" depth="0" NCoef="0" IVar="1" Cut="5.7153780013322830e-02" cType="0" res="-9.9000000000000000e+01" rms="0.0000000000000000e+00" purity="4.9577510356903076e-01" nType="0">
        <Node pos="l" depth="1" NCoef="0" IVar="0" Cut="9.8922147750854492e+00" cType="1" res="-9.9000000000000000e+01" rms="0.0000000000000000e+00" purity="6.3145077228546143e-01" nType="0">
          <Node pos="l" depth="2" NCoef="0" IVar="0" Cut="1.6553219556808472e+00" cType="0" res="-9.9000000000000000e+01" rms="0.0000000000000000e+00" purity="6.7284631729125977e-01" nType="0">
            <Node pos="l" depth="3" NCoef="0" IVar="-1" Cut="0.0000000000000000e+00" cType="1" res="-9.9000000000000000e+01" rms="0.0000000000000000e+00" purity="8.5053616762161255e-01" nType="1"/>
            <Node pos="r" depth="3" NCoef="0" IVar="-1" Cut="0.0000000000000000e+00" cType="1" res="-9.9000000000000000e+01" rms="0.0000000000000000e+00" purity="4.7799390554428101e-01" nType="-1"/>
          </Node>
          <Node pos="r" depth="2" NCoef="0" IVar="-1" Cut="0.0000000000000000e+00" cType="1" res="-9.9000000000000000e+01" rms="0.0000000000000000e+00" purity="2.1900935471057892e-01" nType="-1"/>
        </Node>
        <Node pos="r" depth="1" NCoef="0" IVar="-1" Cut="1.1700280189514160e+01" cType="0" res="-9.9000000000000000e+01" rms="0.0000000000000000e+00" purity="3.0534554272890091e-02" nType="-1"/>
      </Node>
    </BinaryTree>
    <BinaryTree type="DecisionTree" boostWeight="7.5770788272424294e-01" itree="47">
      <Node pos="s" depth="0" NCoef="0" IVar="1" Cut="5.8421205729246140e-02" cType="0" res="-9.9000000000000000e+01" rms="0.0000000000000000e+00" purity="6.7448836565017700e-01" nType="0">
        <Node pos="l" depth="1" NCoef="0" IVar="1" Cut="6.3934355974197388e-01" cType="1" res="-9.9000000000000000e+01" rms="0.0000000000000000e+00" purity="7.1510481834411621e-01" nType="0">
          <Node pos="l" depth="2" NCoef="0" IVar="-1" Cut="1.9947616577148438e+01" cType="1" res="-9.9000000000000000e+01" rms="0.0000000000000000e+00" purity="8.2954502105712891e-01" nType="1"/>
          <Node pos="r" depth="2" NCoef="0" IVar="1" Cut="8.1286370754241943e-01" cType="0" res="-9.9000000000000000e+01" rms="0.0000000000000000e+00" purity="4.1678646206855774e-01" nType="0">
            <Node pos="l" depth="3" NCoef="0" IVar="-1" Cut="0.0000000000000000e+00" cType="1" res="-9.9000000000000000e+01" rms="0.0000000000000000e+00" purity="6.8478190898895264e-01" nType="1"/>
            <Node pos="r" depth="3" NCoef="0" IVar="-1" Cut="0.0000000000000000e+00" cType="1" res="-9.9000000000000000e+01" rms="0.0000000000000000e+00" purity="1.1005766689777374e-01" nType="-1"/>
          </Node>
        </Node>
        <Node pos="r" depth="1" NCoef="0" IVar="-1" Cut="2.3825480937957764e+00" cType="0" res="-9.9000000000000000e+01" rms="0.0000000000000000e+00" purity="1.2718573212623596e-01" nType="-1"/>
      </Node>
    </BinaryTree>
    <BinaryTree type="DecisionTree" boostWeight="7.3165085245446504e-01" itree="48">
      <Node pos="s" depth="0" NCoef="0" IVar="4" Cut="1.8198043107986450e+00" cType="0" res="-9.9000000000000000e+01" rms="0.0000000000000000e+00" purity="5.1196724176406860e-01" nType="0">
        <Node pos="l" depth="1" NCoef="0" IVar="2" Cut="1.1303586959838867e+01" cType="0" res="-9.9000000000000000e+01" rms="0.0000000000000000e+00" purity="8.1455826759338379e-01" nType="0">
          <Node pos="l" depth="2" NCoef="0" IVar="-1" Cut="2.8897470235824585e-01" cType="0" res="-9.9000000000000000e+01" rms="0.0000000000000000e+00" purity="9.9373012781143188e-01" nType="1"/>
          <Node pos="r" depth="2" NCoef="0" IVar="2" Cut="5.0556116104125977e+00" cType="0" res="-9.9000000000000000e+01" rms="0.0000000000000000e+00" purity="2.6510420441627502e-01" nType="0">
            <Node pos="l" depth="3" NCoef="0" IVar="-1" Cut="0.0000000000000000e+00" cType="1" res="-9.9000000000000000e+01" rms="0.0000000000000000e+00" purity="5.3661841154098511e-01" nType="1"/>
            <Node pos="r" depth="3" NCoef="0" IVar="-1" Cut="0.0000000000000000e+00" cType="1" res="-9.9000000000000000e+01" rms="0.0000000000000000e+00" purity="0.0000000000000000e+00" nType="-1"/>
          </Node>
        </Node>
        <Node pos="r" depth="1" NCoef="0" IVar="4" Cut="6.0212206840515137e-01" cType="1" res="-9.9000000000000000e+01" rms="0.0000000000000000e+00" purity="4.2048874497413635e-01" nType="0">
          <Node pos="l" depth="2" NCoef="0" IVar="4" Cut="2.2815245389938354e-01" cType="0" res="-9.9000000000000000e+01" rms="0.0000000000000000e+00" purity="6.4782416820526123e-01" nType="0">
            <Node pos="l" depth="3" NCoef="0" IVar="-1" Cut="0.0000000000000000e+00" cType="1" res="-9.9000000000000000e+01" rms="0.0000000000000000e+00" purity="9.5048391819000244e-01" nType="1"/>
            <Node pos="r" depth="3" NCoef="0" IVar="-1" Cut="0.0000000000000000e+00" cType="1" res="-9.9000000000000000e+01" rms="0.0000000000000000e+00" purity="3.9024212956428528e-01" nType="-1"/>
          </Node>
          <Node pos="r" depth="2" NCoef="0" IVar="2" Cut="1.7906913757324219e+01" cType="0" res="-9.9000000000000000e+01" rms="0.0000000000000000e+00" purity="2.7171221375465393e-01" nType="0">
            <Node pos="l" depth="3" NCoef="0" IVar="-1" Cut="0.0000000000000000e+00" cType="1" res="-9.9000000000000000e+01" rms="0.0000000000000000e+00" purity="6.4797234535217285e-01" nType="1"/>
            <Node pos="r" depth="3" NCoef="0" IVar="-1" Cut="0.0000000000000000e+00" cType="1" res="-9.9000000000000000e+01" rms="0.0000000000000000e+00" purity="1.9500653445720673e-01" nType="-1"/>
          </Node>
        </Node>
      </Node>
    </BinaryTree>
    <BinaryTree type="DecisionTree" boostWeight="1.2272340234650381e+00" itree="49">
      <Node pos="s" depth="0" NCoef="0" IVar="5" Cut="2.1884292602539062e+01" cType="1" res="-9.9000000000000000e+01" rms="0.0000000000000000e+00" purity="6.1951053142547607e-01" nType="0">
        <Node pos="l" depth="1" NCoef="0" IVar="0" Cut="2.3264305591583252e+00" cType="0" res="-9.9000000000000000e+01" rms="0.0000000000000000e+00" purity="7.7596747875213623e-01" nType="0">
          <Node pos="l" depth="2" NCoef="0" IVar="-1" Cut="0.0000000000000000e+00" cType="1" res="-9.9000000000000000e+01" rms="0.0000000000000000e+00" purity="1.0000000000000000e+00" nType="1"/>
          <Node pos="r" depth="2" NCoef="0" IVar="2" Cut="6.4310126304626465e+00" cType="0" res="-9.9000000000000000e+01" rms="0.0000000000000000e+00" purity="6.1155873537063599e-01" nType="0">
            <Node pos="l" depth="3" NCoef="0" IVar="-1" Cut="0.0000000000000000e+00" cType="1" res="-9.9000000000000000e+01" rms="0.0000000000000000e+00" purity="8.2891225814819336e-01" nType="1"/>
            <Node pos="r" depth="3" NCoef="0" IVar="-1" Cut="0.0000000000000000e+00" cType="1" res="-9.9000000000000000e+01" rms="0.0000000000000000e+00" purity="0.0000000000000000e+00" nType="-1"/>
          </Node>
        </Node>
        <Node pos="r" depth="1" NCoef="0" IVar="2" Cut="1.8450983047485352e+01" cType="0" res="-9.9000000000000000e+01" rms="0.0000000000000000e+00" purity="2.8130680322647095e-01" nType="0">
          <Node pos="l" depth="2" NCoef="0" IVar="-1" Cut="0.0000000000000000e+00" cType="1" res="-9.9000000000000000e+01" rms="0.0000000000000000e+00" purity="1.0000000000000000e+00" nType="1"/>
          <Node pos="r" depth="2" NCoef="0" IVar="-1" Cut="2.3630176544189453e+01" cType="0" res="-9.9000000000000000e+01" rms="0.0000000000000000e+00" purity="1.1430968344211578e-01" nType="-1"/>
